%YAML:1.0
---
opencv_ml_svm:
   format: 3
   svmType: C_SVC
   kernel:
      type: RBF
      gamma: 1.
   C: 1.
   term_criteria: { epsilon:1.1920928955078125e-07, iterations:1000 }
   var_count: 64
   class_count: 10
   class_labels: !!opencv-matrix
      rows: 10
      cols: 1
      dt: i
      data: [ 0, 1, 2, 3, 4, 5, 6, 7, 8, 9 ]
   sv_total: 2500
   support_vectors:
      - [ 3.13691211e+03, 8.73062012e+03, 1.91177515e+03, 1.74427356e+03,
          0., 0., 0., 0., 2.94923706e+02, 2.52369385e+03, 2.14262720e+03,
          1.64363416e+03, 0., 0., 0., 2.78172607e+02, 1.83856714e+03, 0.,
          0., 0., 2.28743408e+03, 1.54278967e+03, 1.35179138e+03,
          2.26865747e+03, 2.16303540e+03, 0., 0., 0., 3.70051074e+03,
          2.58415137e+03, 2.10081592e+03, 5.37410938e+03, 0., 0., 0., 0.,
          1.81367725e+03, 2.91027734e+03, 8.61500586e+03, 1.83024634e+03,
          0., 5.50309570e+02, 8.44171265e+02, 2.42767041e+03,
          5.25847900e+02, 6.55934448e+02, 7.76549805e+02, 2.86058594e+03,
          1.38847949e+03, 1.80336328e+03, 2.35066162e+03, 2.75291626e+03,
          0., 0., 1.13137083e+01, 1.18883643e+03, 1.70920593e+03,
          5.10659277e+03, 6.03100684e+03, 1.86614441e+03, 0., 0.,
          9.19238815e+01, 1.57917334e+03 ]
      - [ 2.60218848e+03, 7.21219043e+03, 6.18288428e+03, 0., 0., 0., 0.,
          0., 0., 2.30299854e+03, 6.79346985e+02, 1.37742163e+03,
          5.71063965e+02, 1.45830920e+03, 0., 9.33809433e+01,
          3.11307593e+03, 1.97678192e+02, 0., 2.67540649e+02,
          2.36111719e+03, 1.00539948e+03, 9.31268066e+02, 3.80789795e+03,
          1.46849097e+03, 1.68344879e+02, 0., 0., 1.88607141e+03,
          7.21619629e+03, 2.70295557e+03, 1.71566992e+03, 0.,
          2.70118500e+02, 0., 1.68461792e+03, 1.68774585e+03,
          2.75887842e+03, 2.77099951e+03, 6.09668066e+03, 1.20493030e+03,
          6.24679077e+02, 1.99042444e+03, 9.15382690e+02, 1.47363306e+03,
          7.00021667e+02, 1.98083801e+03, 0., 1.33955298e+03,
          2.05791870e+03, 1.77621545e+03, 4.21868213e+03, 2.83637085e+02,
          0., 7.64607239e+02, 2.46022095e+03, 1.21991675e+03,
          3.51283472e+03, 5.57750342e+03, 2.42737598e+03, 2.05216699e+03,
          8.22921600e+01, 0., 1.24611743e+03 ]
      - [ 3.44029102e+03, 4.85622656e+03, 1.68395972e+03, 1.29355420e+03,
          0., 0., 0., 0., 1.57268225e+03, 6.17427612e+02, 2.09618698e+02,
          0., 0., 5.94810905e+01, 0., 3.67235718e+03, 3.79913306e+03,
          1.27279224e+01, 0., 1.56518372e+02, 0., 0., 6.10175354e+02,
          2.91362012e+03, 1.51819775e+03, 9.84885712e+01, 0., 0., 0.,
          3.21207300e+03, 4.27006201e+03, 5.29784180e+03, 1.29453711e+03,
          1.23223373e+02, 3.25419739e+02, 0., 4.08078955e+03,
          3.05368359e+03, 2.47542334e+03, 6.68389746e+03, 1.74937048e+03,
          1.02719153e+03, 7.94637512e+02, 0., 1.42072156e+03,
          4.05842346e+02, 8.23203491e+02, 1.10176233e+03, 3.00942285e+03,
          1.42888892e+03, 7.47753967e+02, 6.22047424e+02, 7.13122681e+02,
          4.30116272e+02, 0., 1.06817517e+03, 7.56548975e+03,
          6.68650293e+03, 1.73452490e+03, 1.54451929e+03, 2.01380957e+03,
          1.98116119e+02, 0., 1.67326343e+03 ]
      - [ 4.74508691e+03, 9.01582422e+03, 6.01846863e+02, 1.59986707e+03,
          8.70976486e+01, 3.98246155e+01, 0., 0., 0., 2.72316919e+03,
          4.61103027e+02, 0., 0., 0., 0., 8.72811508e+01, 1.91869751e+03,
          0., 0., 0., 6.73149292e+02, 1.05059509e+03, 6.87574219e+02,
          3.35061450e+03, 1.87888477e+03, 0., 0., 0., 1.90012891e+03,
          3.76040356e+03, 4.08340918e+03, 5.61818164e+03, 0., 0., 0., 0.,
          1.72801648e+03, 3.49168286e+03, 1.00607832e+04, 1.91851648e+03,
          0., 0., 2.26470825e+03, 2.84253418e+02, 7.46438232e+02,
          6.17562927e+02, 1.75243591e+03, 1.64863623e+03, 7.38847778e+02,
          1.43236011e+03, 2.24986816e+03, 2.21526855e+03, 2.47681244e+02,
          2.56970825e+02, 1.26150703e+02, 0., 6.96298193e+03,
          2.99903516e+03, 4.54138135e+03, 3.52923340e+03, 0., 0.,
          2.24289978e+02, 2.23852588e+03 ]
      - [ 5.07499854e+03, 3.04851904e+03, 7.67166357e+03, 2.00354993e+03,
          0., 0., 0., 0., 0., 3.18243506e+03, 2.57954956e+03,
          1.96405444e+03, 0., 0., 0., 5.05743835e+02, 2.47211719e+03, 0.,
          0., 0., 2.90827783e+03, 1.61338428e+03, 1.39519470e+03,
          3.47333447e+03, 3.14065039e+03, 1.81135315e+02, 1.13225441e+02,
          1.88601025e+03, 3.62148291e+03, 1.90204126e+03, 3.83851733e+03,
          6.67959619e+03, 0., 0., 0., 2.14316650e+03, 4.06283081e+03,
          2.43835034e+03, 2.65471558e+03, 7.86315430e+03, 0.,
          4.52548332e+01, 9.46678467e+01, 2.79057471e+03, 1.26677136e+03,
          1.13790784e+03, 1.33117444e+03, 2.22389355e+03, 1.75965161e+03,
          2.94258008e+03, 2.41171680e+03, 3.22592529e+03, 0., 0.,
          6.07448425e+01, 4.65815186e+03, 3.46610107e+03, 1.77728662e+03,
          6.32994287e+03, 3.57381348e+03, 1884., 0., 2.00651807e+03,
          1.82669812e+03 ]
      - [ 3.07298413e+03, 8.85639453e+03, 2.95388477e+03, 2.78784253e+03,
          0., 0., 0., 0., 0., 1.40915723e+03, 5.16707617e+03, 0., 0., 0.,
          0., 0., 3.46113599e+03, 7.07106781e+00, 0., 0., 0.,
          4.73151904e+03, 1.77774072e+03, 1.75360120e+03, 1.78843689e+03,
          2.14348901e+03, 0., 0., 3.51019409e+03, 6.00144775e+03,
          2.61497803e+03, 4.02490430e+03, 2.37899139e+02, 0., 0., 0.,
          7.83483545e+03, 2.80860083e+03, 3.91528076e+03, 4.94265771e+03,
          0., 4.24264050e+00, 2.40881592e+03, 1.19132227e+03,
          1.07527747e+03, 4.22947461e+03, 7.97568176e+02, 1.48281799e+03,
          2.13581665e+03, 3.19426367e+03, 1.21026416e+03, 1.01237347e+03,
          4.00627588e+03, 0., 3.67695541e+01, 1.67698755e+03,
          5.21134570e+03, 5.77852002e+03, 2.51578052e+03, 2.30724756e+03,
          3.61229150e+03, 0., 1.07056995e+03, 2.54993042e+03 ]
      - [ 7.37340381e+03, 2.34364380e+03, 5.40477979e+03, 1.88054651e+03,
          3.20024994e+02, 7.61577368e+00, 0., 0., 1.43245554e+01,
          4.04783875e+02, 7.85490967e+02, 2.89088226e+02, 1.35288562e+03,
          0., 0., 0., 5.13821045e+03, 7.65879700e+02, 2.07894211e+02, 0.,
          2.95058691e+03, 1.35697266e+03, 1.91027734e+03, 2.23415479e+03,
          8.34297180e+02, 1.07782458e+03, 2.28870435e+03, 1.36724524e+03,
          3.66787378e+03, 4.87356104e+03, 3.12802588e+03, 2.79581665e+03,
          3.16227770e+00, 0., 0., 0., 1.16037085e+03, 8.00312842e+03,
          6.99314648e+03, 1.17664539e+03, 0., 3.58050270e+01,
          1.83540454e+03, 2.56641943e+03, 0., 5.40816040e+02,
          8.90242676e+02, 4.23933960e+02, 7.18662842e+02, 5.05183252e+03,
          2.00450073e+03, 1.92389124e+03, 1.25004005e+02, 0.,
          7.27561401e+02, 3.48260303e+03, 1.75420435e+03, 8.51278711e+03,
          3.34859277e+03, 4.37013721e+03, 7.60065796e+02, 0., 0.,
          2.51396484e+03 ]
      - [ 2.42100024e+03, 3.53782520e+03, 5.17298096e+03, 1.28318823e+03,
          0., 0., 4.82700729e+01, 3.06006531e+02, 1.79127734e+03,
          9.46079590e+02, 4.07024561e+03, 1.19911597e+03, 0., 0., 0., 0.,
          1.30384045e+01, 8.48528099e+00, 0., 0., 2.53449243e+03,
          1.01688348e+03, 3.15452905e+03, 2.03367944e+03, 4.16360962e+02,
          0., 0., 0., 2.56669751e+03, 4.49994971e+03, 2.50417114e+03,
          3.70887939e+03, 0., 0., 4.68277710e+02, 9.34981689e+02,
          1.67022498e+03, 7.76977588e+03, 2.06012476e+03, 1.74655225e+03,
          3.26612915e+02, 0., 1.92815979e+02, 0., 4.16428467e+03,
          2.03460437e+03, 3.50331396e+03, 1.07971753e+03, 2.30868677e+03,
          1.01660718e+03, 1.28849878e+03, 3.81947998e+03, 1.21010425e+03,
          0., 0., 4.98220581e+02, 3.62189722e+03, 1.71161243e+03,
          2.68889307e+03, 4.44820508e+03, 1.23852930e+03, 0., 0.,
          9.66108276e+02 ]
      - [ 4.47433887e+03, 4.76594482e+03, 1.76407788e+03, 2.28038623e+03,
          0., 0., 0., 0., 1.14017534e+01, 2.38724951e+03, 4.86196228e+02,
          0., 0., 0., 9.91564407e+01, 3.24001733e+03, 3.12722241e+03,
          1.89252966e+03, 5.93632851e+01, 0., 1.95201013e+03,
          1.26417371e+03, 3.48539795e+02, 1.35922400e+03, 4.45284473e+03,
          1.00008508e+03, 0., 0., 1.73180957e+03, 6.17490430e+03,
          9.49229614e+02, 4.76779150e+03, 0., 0., 0., 0., 4.03879395e+03,
          2.97433179e+03, 4.81949219e+03, 6.29334375e+03, 0.,
          1.85714828e+02, 2.24369336e+03, 2.00878067e+02, 6.19879028e+02,
          7.31472839e+02, 1.69038062e+03, 1.39770264e+03, 2.77919775e+03,
          1.34570435e+03, 1.08193591e+03, 2.88556519e+03, 0., 0.,
          4.93456612e+01, 3.58332397e+03, 6.40687061e+03, 2.81855371e+03,
          1.40811267e+03, 7.15378467e+03, 0., 0., 0., 3.90499390e+03 ]
      - [ 7.30427930e+03, 3.54507227e+03, 2.12374121e+03, 1.96052966e+03,
          0., 0., 0., 0., 0., 7.73905640e+02, 1.95754236e+03,
          2.32008621e+02, 0., 0., 0., 0., 4.31643750e+03, 1.13137083e+01,
          0., 0., 2.37669678e+03, 8.95349060e+02, 6.17595276e+02,
          1.43350537e+03, 3.63709766e+03, 1.46235901e+03, 0., 0.,
          1.74623828e+03, 3.76638379e+03, 4.06185083e+03, 2.36190894e+03,
          0., 0., 0., 7.16706726e+02, 3.10848267e+03, 3.35805566e+03,
          5.09004639e+03, 4.57851318e+03, 6.04152336e+01, 0.,
          5.81461914e+02, 1.61826465e+03, 1.42938452e+03, 1.24782434e+03,
          1.30547998e+03, 0., 1.19062524e+03, 2.28595288e+03,
          2.25900098e+03, 1.42922632e+03, 1.21942346e+03, 0.,
          3.67695541e+01, 3.48068408e+03, 2.36022266e+03, 4.74634570e+03,
          3.51851660e+03, 3.65780908e+03, 0., 3.66875641e+02,
          1.58381812e+03, 1.28553394e+03 ]
      - [ 1.99854846e+03, 6.49166455e+03, 1.87414844e+03, 2.30773804e+03,
          0., 0., 0., 0., 0., 3.96518066e+03, 2.19440201e+02, 0., 0., 0.,
          0., 3.75719482e+03, 3.75210742e+03, 1.25062592e+02, 0., 0.,
          2.40755225e+03, 9.42215454e+02, 6.90101746e+02, 1.40594287e+03,
          4.12670361e+03, 8.78901794e+02, 0., 6.64078293e+01,
          3.36276587e+03, 2.89876782e+03, 2.74166479e+03, 4.64223828e+03,
          2.56538483e+02, 0., 1.06677086e+02, 1.45200562e+03,
          3.68308472e+03, 1.49363867e+03, 1.93278943e+03, 6.69332910e+03,
          7.78967773e+02, 2.94730664e+03, 1.15675513e+03, 3.63232697e+02,
          3.64156555e+02, 0., 5.08780914e+02, 3.39172607e+03,
          1.57798975e+03, 1.80605542e+03, 1.91581824e+03, 2.32821118e+03,
          0., 0., 0., 3.15712671e+03, 3.68397632e+03, 5.94404248e+03,
          2.66930029e+03, 1.77045483e+03, 2.03920215e+03, 0.,
          4.19926178e+02, 2.87359790e+03 ]
      - [ 6.52761035e+03, 3.69385571e+03, 2.62649170e+03, 3.39614722e+03,
          0., 0., 0., 0., 3.87611328e+03, 2.10909009e+03, 5.62431274e+02,
          0., 1.32257837e+03, 1.29989539e+03, 3.75366486e+02,
          8.40549072e+02, 1.97115100e+03, 0., 0., 8.90224731e+02, 162.,
          9.95868530e+02, 2.42949829e+03, 5.52692334e+03, 1.60217822e+03,
          3.67224670e+02, 0., 1.71148328e+03, 2.11079053e+03,
          1.79998022e+03, 2.85349463e+03, 7.01786377e+03, 0., 0., 0., 0.,
          1.81613000e+03, 6.14928174e+03, 5.85233398e+03, 3.20848120e+03,
          0., 7.97628479e+02, 1.08036902e+03, 1.88771521e+03,
          4.39353912e+02, 1.06696704e+03, 3.94086548e+03, 1.71624280e+03,
          2.55970313e+03, 2.26160596e+03, 4.29385791e+03, 1.27849915e+03,
          0., 0., 0., 1.52966211e+03, 3.08603149e+03, 4.58530908e+03,
          3.76917529e+03, 2.90625757e+03, 1.38875146e+03, 0.,
          2.27297150e+02, 1.55574036e+03 ]
      - [ 8.41325684e+03, 3.63423535e+03, 3.43204321e+03, 1.88133948e+03,
          0., 0., 0., 0., 1.24834009e+03, 4.43259180e+03, 1.91128235e+02,
          0., 7.45251617e+01, 0., 0., 0., 3.40243457e+03, 7.61577320e+00,
          0., 0., 1.54621985e+03, 1.88872070e+03, 0., 2.76671069e+03,
          4.24022461e+03, 0., 0., 0., 4.74656836e+03, 1.45596985e+03,
          1.91073669e+03, 7.34997412e+03, 0., 0., 0., 0., 1.89425000e+03,
          2.04610779e+03, 5.89062646e+03, 6.83553613e+03, 0.,
          6.23698692e+01, 0., 1.97016077e+03, 0., 0., 5.10343896e+03, 0.,
          6.48789673e+02, 1.70506140e+03, 2.49870532e+03, 3.14991846e+03,
          0., 0., 8.28144608e+01, 2.99055811e+03, 4.27296045e+03,
          2.97751514e+03, 3.37113208e+03, 3.96603027e+03, 3.80525932e+01,
          2.37604721e+02, 1.53665747e+03, 7.48601379e+02 ]
      - [ 2.62403394e+03, 4.82364551e+03, 3.85204150e+03, 1.39127124e+03,
          1.35859985e+03, 0., 1.19079796e+02, 0., 2.61385034e+03,
          1.41337524e+03, 2.21317798e+03, 1.35925146e+03, 8.42473328e+02,
          7.48604736e+02, 4.24264050e+00, 0., 8., 5.65685415e+00, 0., 0.,
          2.33400830e+03, 3.22120532e+03, 1.99722925e+03, 2.20428809e+03,
          1.92353840e+01, 0., 0., 0., 3.89031714e+03, 3.32283276e+03,
          3.88013721e+03, 4.19918164e+03, 0., 0., 0., 1.25356799e+03,
          4.04221411e+03, 3.63190259e+03, 3.23645630e+03, 2.75021777e+03,
          8.31178772e+02, 5.65685415e+00, 5.54055176e+02, 9.83511536e+02,
          3.31937817e+03, 1.36496460e+03, 1.97157544e+03, 2.40550049e+03,
          1.34704321e+03, 1.47643347e+03, 1.89507275e+03, 3.65655981e+03,
          1.43518933e+03, 2.05601547e+02, 0., 0., 3.99397461e+03,
          3.25263330e+03, 3.41521118e+03, 5.31418604e+03, 50., 0., 0.,
          1.40712708e+03 ]
      - [ 7.20277710e+01, 1.29592627e+03, 1.11474971e+04, 2.07618018e+03,
          0., 0., 0., 0., 0., 2.80574854e+03, 2.23465625e+03,
          1.76803430e+03, 0., 0., 3.85511597e+02, 3.52885889e+03,
          3.03829419e+03, 0., 0., 4.01549500e+02, 3.95796069e+03,
          1.06048450e+03, 1.04850916e+03, 0., 1.68822449e+03,
          4.13772412e+03, 0., 0., 4.91229639e+03, 4.23247803e+03,
          2.85330811e+03, 3.24107959e+03, 0., 0., 0., 0., 6.91946777e+03,
          5.84265820e+03, 2.07040137e+03, 3.46922217e+03, 0.,
          1.13137083e+01, 5.11463440e+02, 3.95818994e+03, 1.31659326e+03,
          3.13769922e+03, 8.41982483e+02, 1.62351599e+03, 1.66324585e+03,
          3.88108813e+03, 3.34763013e+03, 3.41160107e+03, 22.,
          4.68960342e+01, 0., 0., 3.47075928e+03, 5.67783008e+03,
          4.98207959e+03, 5.30588574e+03, 22., 0., 0., 0. ]
      - [ 3.69805957e+03, 5.04671875e+03, 3.39969751e+03, 0.,
          9.36482773e+01, 0., 3.06946228e+02, 0., 1.33227441e+03,
          1.19744800e+03, 8.35599487e+02, 1.41960254e+03, 0.,
          2.71621063e+02, 0., 1.72626762e+01, 1.34905396e+03, 0., 0.,
          2.19057083e+02, 1.71872144e+03, 8.11464050e+02, 6.84882263e+02,
          3.06480981e+03, 1.13930444e+03, 0., 2.11101868e+02,
          3.14105469e+02, 1.56139258e+03, 2.93841870e+03, 2.87092822e+03,
          3.75460498e+03, 7.28993835e+02, 0., 0., 1.54005798e+03,
          1.50556531e+03, 1.77127258e+03, 5.42869678e+03, 2.56453638e+03,
          2.27699561e+03, 1.09319946e+03, 5.69083435e+02, 1.38395886e+03,
          3.09467285e+02, 7.04965271e+02, 1.04767493e+03, 2.63107446e+03,
          3.20011133e+03, 1.48627820e+03, 1.43694055e+03, 2.39244775e+03,
          8.88182434e+02, 0., 0., 0., 5.23188281e+03, 3.34329956e+03,
          1.96214624e+03, 4.45885986e+03, 0., 0., 1.74928570e+01,
          7.26044067e+02 ]
      - [ 3.99586670e+03, 1.10434639e+04, 1.02975586e+03, 1.73094727e+03,
          7.66550751e+01, 0., 0., 0., 0., 2.37468896e+03, 1.69227344e+03,
          1.66509265e+03, 0., 0., 0., 0., 1.97828088e+03, 4.77074432e+01,
          0., 0., 2.35059448e+03, 2.75812305e+03, 6.13113647e+02,
          1.50480066e+03, 3.39420142e+03, 5.28971985e+02, 0., 0.,
          2.79281274e+03, 5.22046143e+03, 4.91548242e+03, 3.90666309e+03,
          0., 1.13137083e+01, 0., 0., 4.11295508e+03, 2.91078442e+03,
          7.85688135e+03, 2.97606152e+03, 2.62190765e+02, 0.,
          2.81556396e+02, 3.79065869e+03, 1.74065283e+03, 8.13295105e+02,
          9.69381226e+02, 1.39127344e+03, 2.38268896e+03, 3.95086230e+03,
          2.25778052e+03, 3.15565161e+03, 0., 0., 3.25269127e+01,
          3.53723340e+03, 1.92966150e+03, 5.05891846e+03, 4.78756885e+03,
          3.69000854e+03, 1.15505676e+03, 0., 0., 0. ]
      - [ 3.22302856e+03, 6.88562207e+03, 6.51705713e+03, 2.71515771e+03,
          1.58113880e+01, 0., 0., 0., 1.59822009e+03, 2.97349121e+03,
          5.17549854e+03, 8.64845276e+02, 7.22357254e+01, 0., 0.,
          4.97412262e+02, 0., 0., 0., 0., 2.89319580e+03, 1.40830566e+03,
          5.47626367e+03, 1.89454980e+03, 0., 0., 0., 0., 4.81217627e+03,
          2.90520313e+03, 8.09635596e+03, 4.89075195e+03, 2.86427856e+03,
          1.79744263e+02, 9.27830688e+02, 5.40963806e+02, 5.77886914e+03,
          3.86859302e+03, 2.04390161e+03, 7.14883398e+03, 1.83133835e+02,
          0., 8.61040100e+02, 3.68004150e+03, 3.07651123e+03,
          4.64400696e+02, 0., 2.55835352e+03, 3.34155005e+03,
          2.99821875e+03, 2.39739038e+03, 9.85878357e+02, 4.18896582e+03,
          8.01160583e+01, 0., 2.66443237e+02, 4.80212109e+03,
          4.28662012e+03, 4.36010742e+03, 7.47655713e+03, 196., 0., 0.,
          0. ]
      - [ 3.17456909e+03, 2.87253027e+03, 3.91154858e+03, 3.86057617e+03,
          9.18453613e+02, 0., 0., 0., 1.43875854e+03, 2.75172534e+03,
          1.47376831e+03, 3.07373608e+03, 0., 0., 0., 0., 0., 0., 0.,
          1.33086121e+03, 1.10705969e+03, 1.00192261e+03, 1.65043469e+03,
          2.78600049e+03, 1.52651782e+03, 0., 0., 0., 3.46951343e+03,
          3.79890820e+03, 2.92237378e+03, 3.92119116e+03, 1.32125757e+03,
          0., 0., 1.97022842e+02, 5.19636279e+03, 3.28645752e+03,
          2.25702197e+03, 1.63810327e+03, 2.06391846e+03, 0., 0.,
          2.69291553e+03, 2.00478833e+03, 6.49803040e+02, 8.74777222e+02,
          2.08594312e+03, 2.49839819e+03, 3.12361084e+03, 1.70195667e+03,
          2.57724561e+03, 0., 0., 0., 0., 4.02999756e+03, 3.27834204e+03,
          3.98109961e+03, 3.87570093e+03, 1.16841766e+02, 0., 0.,
          7.61577301e+01 ]
      - [ 7.37411572e+03, 4.45012061e+03, 4.18038037e+03, 7.35062134e+02,
          0., 0., 0., 0., 0., 2.91831519e+03, 2.68760101e+02, 0., 0., 0.,
          0., 0., 2.99060767e+03, 1.41421354e+00, 0., 0., 1.81842786e+03,
          1.36342749e+03, 1.28613293e+03, 0., 1.66329089e+03,
          3.74489258e+03, 0., 1.68291412e+02, 4.02580127e+03,
          2.11323438e+03, 3.26139380e+03, 5.65379834e+03, 0., 0., 0.,
          1.94041229e+02, 2.05139722e+03, 3.41846753e+03, 4.75800830e+03,
          5.53328027e+03, 3.79928955e+02, 1.25935083e+03, 7.42083862e+02,
          5.23694580e+02, 4.83342529e+02, 5.68823364e+02, 1.35201904e+03,
          1.47351550e+03, 7.06463013e+02, 2.51213043e+02, 2.24166479e+03,
          3.49597168e+03, 0., 0., 1.05249130e+02, 3.36001782e+03,
          4.15665625e+03, 3.98319897e+03, 2.43765479e+03, 2.74755078e+03,
          2040., 0., 1.55498657e+03, 2.91072314e+03 ]
      - [ 5.21615820e+03, 3.52027124e+03, 2.96811890e+03, 5.13595154e+02,
          5.79629211e+02, 0., 4.73261017e+02, 7.39310486e+02,
          4.02314575e+03, 2.24289993e+02, 6.09119080e+02, 0.,
          4.66171631e+02, 0., 0., 2.08804956e+03, 2.51467456e+03,
          8.94427204e+00, 0., 0., 9.48988953e+02, 1.18736304e+03,
          1.43628540e+03, 3.14469897e+03, 1.65203455e+03, 8.54283295e+01,
          0., 0., 2.51798853e+03, 3.75148291e+03, 3.45092041e+03,
          2.54775024e+03, 2.42989716e+02, 0., 0., 0., 1.87720447e+03,
          3.51271802e+03, 7.63525684e+03, 3.98304883e+03, 0., 0., 0.,
          1.33416643e+01, 1.64019922e+03, 1.93530200e+03, 4.58976221e+03,
          8.77407532e+02, 4.20658057e+03, 1.49718408e+03, 2.15930835e+03,
          2.44826147e+03, 0., 0., 0., 1.85098596e+03, 4.43056787e+03,
          2.86258887e+03, 3.29466064e+03, 4.71638184e+03, 1.40427917e+02,
          0., 1.13137083e+01, 0. ]
      - [ 3.27632642e+03, 3.80900903e+03, 6.45370361e+03, 3.03750659e+03,
          0., 0., 0., 0., 1.47669580e+03, 1.65269067e+03, 1.20390967e+03,
          2.27646143e+03, 3.07183350e+03, 0., 0., 2.54950981e+01,
          2.38754126e+03, 7.65146866e+01, 0., 0., 2.70050049e+03,
          3.07097754e+03, 2.60332324e+03, 2.23334619e+03, 1.39267725e+03,
          0., 8.26801071e+01, 6.89637604e+01, 4.74746289e+03,
          3.21570093e+03, 4.11730420e+03, 3.61187744e+03, 0., 0., 0., 0.,
          5.24845850e+03, 2.82764038e+03, 5.36722266e+03, 3.69644019e+03,
          0., 0., 2.50487476e+03, 1.57488855e+03, 0., 2.02931421e+03,
          2.11831543e+03, 2.95114526e+03, 3.36031885e+03, 1.26073047e+03,
          3.09622754e+03, 1.58758350e+03, 1.65203235e+03, 8.13019028e+01,
          0., 1.78387073e+03, 4.70658740e+03, 3.43745874e+03,
          2.78796558e+03, 5.49397021e+03, 7.14002808e+02, 1.22384636e+02,
          3.37065735e+02, 1.99743225e+03 ]
      - [ 4.05905713e+03, 8.25307520e+03, 1.55210852e+03, 8.71565491e+02,
          3.83550879e+03, 0., 0., 6.39531097e+01, 2.34459888e+03,
          3.67702295e+03, 1.05450671e+03, 1.77893176e+03, 1.87403418e+03,
          0., 0., 0., 3.26439429e+03, 0., 0., 0., 3.36664185e+03,
          4.39647900e+03, 8.07268982e+02, 8.65638794e+02, 3.18190210e+03,
          7.08378448e+01, 0., 9.75294800e+01, 5.41126855e+03,
          5.00377930e+03, 1.82084949e+03, 4.11976367e+03, 0., 0., 0., 0.,
          3.53982471e+03, 7.63109521e+03, 4.18680713e+03, 3.38194238e+03,
          0., 0., 0., 8.34038391e+02, 3.12293945e+03, 3.32343115e+03,
          2.89786353e+03, 1.70803479e+03, 4.00501514e+03, 1.15498267e+03,
          4.64200342e+03, 3.83452490e+03, 2., 0., 0., 1.80608887e+03,
          2.74945117e+03, 4.93516357e+03, 5.37384521e+03, 5.49139893e+03,
          2., 0., 2.10237961e+01, 0. ]
      - [ 3.52248975e+03, 2.64755664e+03, 1.72311279e+03, 1.32792981e+03,
          0., 0., 0., 0., 6.22009644e+02, 2.66905298e+03, 1.59716382e+03,
          1.59380051e+02, 0., 0., 0., 0., 8.98684326e+02, 0.,
          8.47230759e+01, 0., 1.14590479e+03, 6.20994324e+02,
          1.12152454e+03, 2.35355347e+03, 8.75950562e+02, 0., 0., 0.,
          1.28073242e+03, 2.38106763e+03, 1.84268884e+03, 3.16501294e+03,
          1.61009323e+02, 0., 0., 0., 2.28764404e+03, 6.78517334e+02,
          4.05598291e+03, 2.57125635e+03, 2.21002258e+02, 0.,
          4.71076782e+02, 8.26834900e+02, 1.06075447e+02, 7.11163818e+02,
          2.29704712e+03, 1.70254272e+03, 1.02996057e+03, 8.97036682e+02,
          9.93579407e+01, 2.53791187e+03, 5.18396057e+02, 1.07935165e+02,
          4.66146126e+01, 1.77047485e+03, 1.98437561e+03, 2.89404810e+03,
          1.67783728e+03, 2.02299438e+03, 5.94053894e+02, 0.,
          1.69705620e+01, 2.71111987e+03 ]
      - [ 7.06762109e+03, 2.72400122e+03, 2.35786597e+03, 1.92829932e+03,
          0., 0., 0., 0., 3.48648804e+02, 4.17546094e+03, 0., 0., 0., 0.,
          0., 5.81315186e+02, 4.48083594e+03, 1.11289093e+02, 0., 0.,
          1.24954260e+03, 1.60048047e+03, 4.80832596e+01, 1.16073328e+03,
          4.49353760e+03, 1.99274597e+03, 0., 0., 2.52618408e+03,
          2.03208813e+03, 1.91310144e+03, 3.67486523e+03, 1.70839096e+02,
          0., 0., 0., 2.11059619e+03, 3.23826611e+03, 2.59187671e+03,
          5.45274805e+03, 4.15932693e+01, 2.31984058e+03, 5.48694824e+02,
          3.60072205e+02, 0., 1.19507922e+03, 1.49356494e+03,
          2.27109668e+03, 1.96132520e+03, 1.64940430e+03, 1.93533716e+03,
          1.25198462e+03, 0., 0., 1.19540787e+02, 3.52735034e+03,
          3.46327271e+03, 2.58541797e+03, 2.11561987e+03, 3.66613892e+03,
          0., 0., 4.43846817e+01, 3.66860962e+03 ]
      - [ 3.54378491e+03, 7.97007471e+03, 3.42621021e+03, 1.85502356e+03,
          0., 0., 0., 0., 3.22963867e+03, 2.25580518e+03, 1.20645215e+03,
          2.17247998e+03, 0., 0., 0., 0., 5.16252393e+03, 2.16585541e+02,
          0., 0., 4.08967432e+03, 9.48850159e+02, 1.28966223e+03,
          2.68079175e+03, 2.52564673e+03, 2.02010974e+03, 0.,
          1.00600854e+03, 4.14829346e+03, 4.19676904e+03, 3.49118140e+03,
          1.87252271e+03, 0., 0., 0., 6.70522232e+01, 8.81459045e+02,
          8.31085156e+03, 8.49817773e+03, 1.30552380e+03, 0., 0., 0., 0.,
          2.36139786e+02, 8.58304590e+03, 1.65842395e+03, 0.,
          1.38474219e+03, 1.67364648e+03, 1.45592920e+03, 6.36250732e+03,
          0., 0., 0., 3.30135254e+03, 2.29645557e+03, 3.52897144e+03,
          4.77341113e+03, 4.63005127e+03, 2.02416565e+03, 0.,
          8.40988220e+02, 3.05569336e+03 ]
      - [ 4.68235400e+03, 1.81902209e+03, 9.78828308e+02, 1.04331641e+03,
          0., 0., 0., 0., 5.07986963e+03, 7.79358765e+02, 0.,
          8.02246857e+01, 0., 0., 0., 1.28895349e+03, 1.44393127e+03,
          1.16661903e+02, 0., 0., 0., 7.53048462e+02, 1.30550342e+03,
          3.60386841e+03, 0., 0., 0., 0., 1.19843396e+03, 1.02941772e+03,
          3.21065576e+03, 3.47089941e+03, 1.27062329e+03, 0.,
          2.44584991e+02, 1.06011938e+03, 2.11026062e+02, 8.30128479e+02,
          1.62663806e+03, 3.37106250e+03, 1.12369519e+03, 6.40640564e+02,
          4.56004364e+02, 3.23554810e+02, 0., 2.02474686e+02,
          2.01134018e+02, 2.68695264e+03, 1.68914661e+03, 2.73634106e+03,
          6.33103455e+02, 1.46828967e+03, 4.90917511e+01, 0.,
          1.59524841e+01, 1.03375085e+03, 3.30119214e+03, 3.23114087e+03,
          1.96022424e+03, 1.58781689e+03, 0., 0., 4.63249397e+01, 0. ]
      - [ 4.29504248e+03, 4.47261621e+03, 3.31525024e+03, 1.43780786e+03,
          0., 0., 0., 3.90184570e+02, 3.31889917e+03, 2.89062500e+03,
          1.28994263e+03, 0., 0., 0., 2.67089966e+02, 1.91905441e+02,
          2.48071997e+03, 7.60263138e+01, 0., 0., 6.18852173e+02,
          2.21627271e+03, 1.45480334e+03, 1.61896875e+03, 2.95803564e+03,
          8.58020935e+01, 0., 0., 2.43930957e+03, 2.55467700e+03,
          4.38114355e+03, 2.05625000e+03, 6.42123047e+02, 5.48605469e+02,
          1.02756519e+03, 2.66937280e+03, 2.46662842e+03, 1.27959363e+03,
          3.65872656e+03, 2.93844312e+03, 4.40857269e+02, 1.56034424e+03,
          0., 1.66529272e+03, 7.75743469e+02, 1.50970239e+03,
          2.75215869e+03, 4.27310211e+02, 6.52701477e+02, 0.,
          1.31410645e+03, 1.96489551e+03, 1.50082837e+03, 1.44222050e+01,
          1.64158044e+03, 2.35606445e+03, 2.47025049e+03, 2.11984229e+03,
          1.99035120e+03, 3.03276611e+03, 1.51453711e+03, 7.21803284e+01,
          1.52974121e+03, 3.42768774e+03 ]
      - [ 3.81238037e+03, 2.02568201e+03, 1.09768787e+03, 2.57090039e+03,
          2.73216626e+03, 2.01955444e+02, 0., 0., 1.80932568e+03,
          1.64052844e+03, 2.06179907e+03, 1.12119934e+03, 2.08254932e+03,
          0., 3.72615997e+02, 1.89016846e+02, 1.84708301e+03,
          5.88634968e+00, 1.12294258e+02, 4.52769241e+01, 2.58933691e+03,
          1.13595398e+03, 2.43457080e+03, 2.77874048e+03, 0.,
          1.41421354e+00, 0., 3.60555115e+01, 3.38873560e+03,
          2.55242334e+03, 2.14448877e+03, 2.64861182e+03, 2.56632019e+02,
          0., 1.95473770e+02, 2.81674707e+03, 2.39364526e+03,
          8.61667175e+02, 2.48509717e+03, 3.45997974e+03, 4.24949432e+02,
          8.71613464e+02, 7.32035400e+02, 9.53510010e+02, 1.08671643e+03,
          2.01447888e+03, 1.58782629e+03, 1.92862378e+03, 3.25308496e+03,
          1.75775940e+03, 2.35144287e+03, 1.74473169e+03, 1.25858105e+03,
          0., 0., 7.14725769e+02, 3.24815112e+03, 3.60346899e+03,
          2.03389478e+03, 4.33416943e+03, 8., 0., 0., 0. ]
      - [ 1.75938538e+03, 7.78198926e+03, 5.15852979e+03, 1.74309204e+03,
          0., 0., 0., 0., 8.80908585e+01, 5.77859619e+03, 3.97954773e+02,
          8.47779419e+02, 2.48776318e+03, 0., 0., 0., 2.89710107e+03,
          1.76590481e+01, 1.23004066e+02, 0., 4.36224219e+03,
          1.10970569e+03, 2.23249658e+03, 1.31294714e+03, 2.17750586e+03,
          5.18337769e+02, 3.53836136e+01, 0., 4.84107715e+03,
          4.88286572e+03, 1.76387939e+03, 3.10004053e+03, 0., 0., 0.,
          7.80256348e+01, 2.50625049e+03, 8.81984570e+03, 5.22164893e+03,
          1.46514563e+03, 2.64200684e+02, 0., 0., 2.45477100e+03,
          1.21145154e+03, 3.14820728e+03, 4.12264063e+03, 3.93204773e+02,
          82., 1.34797668e+03, 3.47863013e+03, 4.05241064e+03,
          1.68074036e+03, 0., 0., 1.58425439e+03, 3.31790479e+03,
          4.14387061e+03, 2.46124243e+03, 7.56989014e+03, 8., 0.,
          1.97285547e+03, 1.56288342e+03 ]
      - [ 1.12320386e+03, 3.27596045e+03, 1.63126855e+03, 1.73109399e+03,
          1.69829199e+03, 0., 0., 0., 0., 3.03001782e+03, 3.62505188e+02,
          1.18785718e+03, 2.08086517e+02, 6.79615356e+02, 4.64605194e+02,
          0., 0., 1.30084595e+02, 1.96796738e+02, 1.33600781e+03,
          5.33158508e+02, 7.03045044e+02, 1.29577905e+03, 6.34717285e+02,
          1.21174756e+03, 0., 0., 0., 2.99503247e+03, 1.89495667e+03,
          1.83298560e+03, 2.03882410e+03, 0., 0., 8.45340195e+01,
          7.18401123e+02, 3.06025391e+03, 3.29042114e+03, 1.42427673e+03,
          1.09900317e+03, 0., 3.33829620e+02, 8.44757202e+02,
          5.76003479e+02, 6.59146423e+02, 2.63511768e+03, 1.52288904e+03,
          0., 1.17836633e+03, 7.65398926e+02, 1.36992651e+03,
          2.77688354e+03, 4.29287628e+02, 0., 0., 0., 1.52979639e+03,
          1.43516394e+03, 3.50140039e+03, 3.32285400e+03, 38., 0.,
          1.02459755e+02, 0. ]
      - [ 2.49436206e+03, 1.00570439e+04, 1.86898767e+03, 1.65902026e+03,
          1.66567822e+03, 6.57419205e+01, 0., 0., 6.33623486e+03,
          2.22459131e+03, 1.63626746e+03, 0., 0., 0., 0., 9.70051575e+01,
          2.62617584e+02, 0., 0., 0., 9.33373352e+02, 3.99187524e+03,
          1.90148425e+03, 1.69924609e+03, 1.89456958e+03, 0., 0., 0.,
          4.99946143e+03, 5.70824268e+03, 1.79732031e+03, 6.87082031e+03,
          0., 0., 0., 0., 4.76019092e+03, 4.77253174e+03, 5.99398877e+03,
          3.80650635e+03, 0., 0., 0., 0., 1.31736743e+03, 3.63541333e+03,
          4.55725781e+03, 2.66614746e+03, 5.43586621e+03, 8.36956238e+02,
          1.65340479e+03, 3.40092236e+03, 1.89825354e+03, 1.44810211e+02,
          3.81837654e+01, 3.28476904e+03, 1.79632678e+03, 6.43956885e+03,
          2.36576660e+03, 7.31513623e+03, 2.10449707e+02, 0.,
          7.07106781e+00, 3.41177368e+02 ]
      - [ 6.94294092e+03, 5.87438330e+03, 1.41450513e+03, 9.76618958e+02,
          3.49414258e+03, 0., 0., 8.93464294e+02, 3.59134351e+03,
          4.70896484e+03, 0., 0., 1.51604752e+02, 0., 1.41421354e+00,
          7.04088318e+02, 2.27336761e+02, 0., 0., 0., 1.85800049e+03,
          2.02154126e+03, 7.14190491e+02, 1.49964966e+03, 3.75279053e+03,
          7.74725723e+01, 3.41268677e+02, 0., 4.00938135e+03,
          4.93004736e+03, 1.26235706e+03, 9.23210938e+03, 0., 0., 0.,
          3.48430225e+03, 1.93638477e+03, 3.26895166e+03, 4.19821777e+03,
          7.13247363e+03, 0., 2.77224640e+02, 3.87324158e+02, 0.,
          1.01393274e+03, 3.86035425e+03, 1.74019275e+03, 4.71427637e+03,
          7.90909607e+02, 1.42584192e+03, 4.26644287e+03, 3.53210010e+03,
          0., 1.21202309e+02, 2.40416298e+01, 2.02170264e+03,
          5.21614453e+03, 1.02580774e+03, 6.82034814e+03, 5.76685303e+03,
          0., 0., 1.04482353e+02, 1.68548120e+03 ]
      - [ 4.19673486e+03, 3.03694409e+03, 1.66049475e+03, 1.03394214e+03,
          1.20460535e+03, 2.40166748e+03, 0., 2.29986646e+03,
          2.59255298e+03, 2.18082550e+02, 2.68287170e+02, 1.83847771e+01,
          0., 2.27228345e+03, 7.38304749e+02, 1.79892261e+03, 0., 0., 0.,
          0., 2.30097070e+03, 1.64913965e+03, 1.50676917e+03,
          3.93314624e+03, 0., 0., 0., 0., 3.42994067e+03, 3.15887109e+03,
          3.83096313e+03, 5.58174316e+03, 1.74019836e+03, 7.02027405e+02,
          0., 0., 4.18340381e+03, 4.54059229e+03, 2.71006104e+03,
          2.63829492e+03, 2.06879565e+03, 0., 0., 0., 3.74946606e+03,
          2.62847803e+03, 3.80333038e+02, 8.77643188e+02, 3.64367871e+03,
          2.42224561e+03, 1.04844580e+03, 2.87760474e+03, 0., 0., 0., 0.,
          6.47174414e+03, 4.10924463e+03, 1.69541455e+03, 4.10371143e+03,
          6.91122742e+02, 0., 0., 0. ]
      - [ 6.96086963e+03, 5.33491602e+03, 6.99122803e+02, 2.00452991e+03,
          1.99078162e+03, 0., 1.09553635e+02, 0., 3.59339355e+03,
          2.51766211e+03, 5.20818604e+02, 0., 0., 0., 0., 1.32631274e+03,
          5.12588135e+03, 3.42368896e+02, 0., 1.95829932e+03,
          8.88576416e+02, 1.25660889e+03, 9.95315247e+02, 1.19489294e+03,
          2.22989697e+03, 2.19200122e+03, 0., 0., 3.85185278e+03,
          4.60685645e+03, 2.84081396e+03, 2.36971436e+03, 0., 0., 0., 0.,
          3.31535156e+03, 4.93451758e+03, 8.37418750e+03, 2.17027124e+03,
          9.69329605e+01, 2.09747467e+02, 3.89371307e+02, 1.41177100e+03,
          0., 1.52802539e+03, 6.23453809e+03, 5.64490906e+02,
          1.50623816e+03, 1.67744238e+03, 3.17198584e+03, 3.60528711e+03,
          0., 0., 0., 3.92937660e+01, 6.49487500e+03, 4.05346265e+03,
          4.47604053e+03, 5.59513281e+03, 0., 0., 1.69705620e+01,
          1.82817896e+03 ]
      - [ 6.10296484e+03, 5.94077100e+03, 9.61127319e+02, 1.72669897e+03,
          104., 0., 0., 0., 2.56058936e+03, 3.03353687e+03,
          1.52648999e+03, 0., 0., 0., 0., 5.75183044e+02, 1.72251318e+03,
          4.25122070e+02, 0., 1.13771698e+02, 2.38229980e+03,
          1.08112292e+03, 1.17933044e+03, 2.12144287e+03, 1.45027441e+03,
          5.24785652e+01, 0., 0., 2.75935767e+03, 3.17755884e+03,
          3.00330884e+03, 5.08917383e+03, 0., 0., 0., 0., 1.87267188e+03,
          5.47234766e+03, 2.45907275e+03, 6.19169922e+03, 3.04912537e+02,
          0., 0., 1.83382739e+03, 3.22490311e+01, 2.32659619e+03,
          1.81443018e+03, 2.85955273e+03, 1.48968567e+03, 1.48531396e+03,
          2.44765234e+03, 2.73759302e+03, 3.35201447e+02, 0.,
          1.41421354e+00, 1.77707446e+03, 6.37545850e+03, 1.35641113e+03,
          3.18685254e+03, 5.47508594e+03, 0., 0., 5.51734390e+01,
          1.53518628e+03 ]
      - [ 3.43305273e+03, 9.71899414e+03, 1.84234924e+03, 0., 0., 0., 0.,
          0., 8.76641296e+02, 4.75049805e+03, 8.46178406e+02, 0.,
          1.54019485e+02, 0., 0., 6.16116867e+01, 9.79177551e+02, 0., 0.,
          0., 1.49272803e+03, 6.70903870e+02, 1.24009900e+03,
          2.57036523e+03, 2.74830005e+03, 5.94251099e+02, 0.,
          1.73297440e+02, 3.11496411e+03, 1.67309375e+03, 2.66152856e+03,
          5.96006689e+03, 0., 0., 0., 1.65399597e+03, 8.92265320e+02,
          3.94901001e+03, 3.56126807e+03, 2.57123413e+03, 2.21318091e+03,
          7.07106781e+00, 4.06821991e+02, 1.44053137e+03, 6.73832336e+02,
          2.05566650e+03, 1.57174927e+03, 1.21018152e+03, 1.65043860e+03,
          2.66054785e+03, 2.21889355e+03, 2.26394653e+03, 0., 0., 0.,
          5.33666573e+01, 3.91141479e+03, 4.77275244e+03, 2.38134839e+03,
          3.23677441e+03, 0., 0., 0., 6.60110413e+02 ]
      - [ 2.39099829e+03, 9.63546191e+03, 2.09307593e+03, 7.11267944e+02,
          0., 0., 0., 0., 3.13904883e+03, 1.05879590e+03, 1.05568774e+03,
          8.24458618e+02, 0., 1.24482933e+02, 0., 0., 3.23676660e+03,
          1.66385101e+02, 0., 1.62605273e+03, 1.09253345e+03,
          7.53233032e+02, 8.71716736e+02, 1.65700085e+03, 4.65008496e+03,
          5.40083984e+02, 8.26589050e+01, 0., 4.04335718e+03,
          2.17699902e+03, 2.61408936e+03, 4.68523584e+03, 2.05995148e+02,
          0., 0., 0., 7.18600159e+02, 7.70029639e+03, 6.02716553e+03,
          1.94845349e+03, 2.77481537e+02, 1.97989902e+01, 0.,
          1.58202408e+02, 4.40055420e+03, 3.70453052e+03, 3.29453552e+02,
          8.38576172e+02, 4.56432178e+03, 8.60100464e+02, 3.25497388e+03,
          3.67683301e+03, 0., 0., 5.46443062e+01, 2.98415649e+03,
          2.60748926e+03, 2.95677246e+03, 4.86496387e+03, 4.57879004e+03,
          5.58243713e+02, 0., 1.41421354e+00, 0. ]
      - [ 5.00047803e+03, 8.80891797e+03, 1.46398169e+03, 2.52958008e+03,
          1.14280357e+02, 0., 0., 0., 4.91512207e+03, 7.43942200e+02,
          4.18549866e+02, 0., 0., 0., 0., 0., 3.71340991e+03,
          2.33142578e+02, 6.00333252e+01, 7.15034302e+02, 1.43875366e+03,
          8.22096069e+02, 8.11335693e+02, 0., 5.40888232e+03, 0., 0., 0.,
          3.51245068e+03, 5.09579883e+03, 2.94029883e+03, 3.50554688e+03,
          6.93058472e+02, 0., 0., 0., 3.85962793e+03, 4.22118799e+03,
          6.23608887e+03, 4.41731543e+03, 6.33686951e+02, 5.70029175e+02,
          8.64765503e+02, 6.14955261e+02, 1.88139893e+03, 2.42665161e+03,
          2.60444946e+03, 9.99136169e+02, 1.58790125e+03, 1.76301404e+03,
          6.90884961e+03, 6.40557739e+02, 0., 0., 3.21215607e+02,
          1.54554895e+03, 3.87785425e+03, 5.43819238e+03, 6.56490918e+03,
          3.50026196e+03, 1.05118980e+02, 0., 0., 0. ]
      - [ 4.06338794e+03, 1.06466777e+04, 1.52445935e+03, 2.64637280e+03,
          1.14157784e+02, 0., 0., 0., 3.83218457e+03, 2.02495776e+03,
          2.78657501e+02, 0., 0., 0., 0., 0., 4.12199658e+03,
          8.65332336e+01, 0., 0., 2.11656470e+03, 1.17027344e+03,
          1.56226770e+03, 2.04362427e+02, 2.06415381e+03, 2.22623779e+03,
          0., 0., 4.86952344e+03, 6.31525537e+03, 2.41371533e+03,
          3.04875366e+03, 0., 0., 0., 0., 2.45325806e+03, 4.97244629e+03,
          8.14098438e+03, 3.47072144e+03, 3.81473450e+02, 3.59736145e+02,
          6.44490540e+02, 8.30364990e+02, 6.82676270e+02, 2.15456445e+03,
          4.02272437e+03, 1.24269543e+03, 3.14065625e+03, 1.34396570e+03,
          2.26087622e+03, 3.88758911e+03, 3.00665932e+01, 0.,
          2.26274166e+01, 1.89666577e+03, 4.77673291e+03, 1.88802893e+03,
          7.35778809e+03, 5.06553857e+03, 94., 0., 0., 3.00665913e+01 ]
      - [ 3.36417578e+03, 1.06041045e+04, 1.48807104e+03, 1.80088867e+03,
          1.10323560e+03, 0., 0., 0., 2.49722681e+03, 5.36184375e+03,
          1.63321191e+03, 4.49908875e+02, 0., 0., 0., 1.17720009e+02,
          3.79724707e+03, 0., 0., 0., 2.83911279e+03, 3.04604297e+03,
          1.72218994e+03, 2.73001831e+02, 3.77479688e+03, 1.45835526e+02,
          0., 0., 5.68511621e+03, 4.27065771e+03, 4.01557983e+03,
          2.06710889e+03, 0., 0., 0., 0., 5.38944727e+03, 5.26999512e+03,
          5.51903662e+03, 3.81996289e+03, 0., 0., 0., 0., 1.90666956e+03,
          4.74945557e+03, 3.36305420e+03, 2.14432153e+03, 1.61299023e+03,
          2.23355298e+03, 1.71805518e+03, 3.64868652e+03, 2.04248462e+03,
          7.72732391e+01, 0., 2.45612329e+03, 3.33416895e+03,
          3.17845093e+03, 6.44762256e+03, 4.25045947e+03, 2.04628796e+03,
          0., 9.89949512e+00, 2.70652100e+03 ]
      - [ 3.38311548e+03, 7.01778955e+03, 3.94685986e+03, 2.11479736e+03,
          0., 0., 0., 1.06018867e+02, 2.01956445e+03, 4.81654541e+03,
          1.00897284e+03, 8.07371033e+02, 0., 0., 0., 0., 3.03857813e+03,
          0., 0., 0., 3.35250830e+03, 2.14784717e+03, 1.44785632e+03,
          2.98625305e+02, 2.80378125e+03, 1.00161169e+03, 0.,
          1.84962622e+03, 3.26476221e+03, 3.72282007e+03, 3.51623438e+03,
          2.42765747e+03, 0., 0., 9.62600632e+01, 0., 4.36899707e+03,
          6.26131006e+03, 5.70900586e+03, 1.93369739e+03, 0.,
          9.89949512e+00, 0., 0., 2.44441333e+03, 6.05108252e+03,
          2.11275244e+03, 8.75567261e+02, 2.30528296e+03, 2.30492822e+03,
          3.50063452e+03, 2.40036353e+03, 1.60707251e+03, 0., 0.,
          1.22800652e+02, 4.88327930e+03, 3.02337012e+03, 5.53867676e+03,
          2.33523047e+03, 2.92988354e+03, 0., 0., 2.05593750e+02 ]
      - [ 5.31037158e+03, 2.25773706e+03, 5.04980273e+03, 4.81814746e+03,
          8.28613281e+01, 0., 4.60651703e+01, 0., 8.93985413e+02,
          1.41741602e+03, 2.89780884e+03, 2.22804840e+02, 9.24592224e+02,
          0., 1.04383093e+03, 0., 2.83789404e+03, 5.65685415e+00, 0., 0.,
          2.56456635e+02, 4.99484961e+03, 1.34836865e+03, 3.31210010e+03,
          5.24169800e+02, 0., 0., 8.02261169e+02, 5.14761230e+03,
          4.64787695e+03, 4.67083545e+03, 2.60180347e+03, 9.81053467e+02,
          1.60216577e+03, 3.11623242e+03, 3.82452490e+03, 3.05757397e+03,
          2.36966309e+03, 2.98012280e+03, 2.63882153e+03, 3.70223535e+03,
          1.77641284e+03, 2.03604968e+03, 2.31677783e+03, 3.92794214e+03,
          1.92421402e+02, 0., 0., 5.30827295e+03, 1.57651111e+03,
          1.64550513e+03, 2.03783545e+03, 3.61496558e+03, 3.62215424e+02,
          2.96984844e+01, 1.91637280e+03, 3.74452490e+03, 6.45741992e+03,
          2.88044897e+03, 5.02152100e+03, 2.70625928e+03, 0., 0.,
          3.10177368e+02 ]
      - [ 3.26681860e+03, 7.96127979e+03, 3.18160352e+03, 1.34921606e+03,
          0., 0., 0., 0., 1.64503955e+03, 1.47032813e+03, 1.23542871e+03,
          1.16535522e+03, 0., 0., 0., 0., 1.84790491e+03, 0., 0., 0.,
          2.40054004e+03, 1.41434448e+03, 7.23714050e+02, 1.79114514e+03,
          3.53529614e+03, 8.82383194e+01, 0., 2.20927588e+03,
          3.02168945e+03, 2.00162341e+03, 2.62184961e+03, 7.03816211e+03,
          3.65168427e+02, 1.36106888e+02, 4.14959564e+02, 4.33734253e+02,
          1.91696326e+03, 3.00999731e+03, 1.04018721e+04, 1.46268347e+03,
          0., 0., 0., 2.62373779e+02, 1.60512292e+03, 7.54687988e+02,
          4.22895605e+03, 0., 1.46089331e+03, 2.35152686e+03,
          2.90304175e+03, 8.94248718e+02, 634., 0., 0., 2.02432190e+03,
          4.20955518e+03, 3.35829712e+03, 5.24197266e+03, 2.28510913e+03,
          9.88866028e+02, 5.64649780e+02, 7.60078857e+02, 2.48190259e+03 ]
      - [ 3.73176221e+03, 7.23819580e+03, 2.36928076e+03, 2.07164111e+03,
          0., 0., 0., 1.76045456e+02, 3.07494458e+03, 2.91651538e+03,
          1.67181201e+03, 0., 0., 0., 0., 0., 3.09486182e+03,
          5.65685415e+00, 1.47166565e+02, 0., 2.30433936e+03,
          1.11684985e+03, 9.28294128e+02, 2.06712354e+03, 3.69161182e+03,
          3.42426414e+01, 0., 0., 4.55584229e+03, 2.61132642e+03,
          2.69222485e+03, 3.20818481e+03, 7.35082336e+02, 0., 0., 0.,
          2.67694727e+03, 5.23674463e+03, 3.99131909e+03, 2.85225293e+03,
          0., 1.47974167e+02, 0., 2.52709814e+03, 1.88881616e+03, 820.,
          1.80277405e+03, 2.04094226e+03, 1.51091870e+03, 3.88424292e+03,
          3.43035205e+03, 2.37786230e+03, 0., 0., 0., 5.02069702e+02,
          2.76119312e+03, 3.40093115e+03, 7.71448535e+03, 3.20471655e+03,
          0., 0., 0., 0. ]
      - [ 6.27326758e+03, 2.92633081e+03, 1.66569800e+03, 4.48500195e+03,
          2.28681494e+03, 0., 0., 0., 5.60839795e+03, 1.74777515e+03,
          1.41787964e+03, 1.06599976e+03, 0., 0., 0., 1.94251685e+03,
          1.99625525e+03, 0., 0., 0., 1.00934039e+03, 1.59966431e+03,
          3.00589697e+03, 5.15850342e+03, 2.03578906e+03, 2.05912609e+01,
          0., 2.04083313e+02, 4.91118945e+03, 2.37722729e+03,
          5.41364014e+03, 5.93013330e+03, 1.32060593e+02, 0., 0., 0.,
          5.17866260e+03, 4.21205322e+03, 3.36373657e+03, 3.41800562e+03,
          1.61916125e+03, 0., 6.97996674e+01, 1.67526111e+03,
          2.37243457e+03, 9.10166992e+02, 3.02245728e+03, 3.09288745e+03,
          4.99627002e+03, 3.18104102e+03, 3.23383154e+03, 1.74209570e+03,
          0., 0., 1.72588043e+02, 1.61246423e+03, 3.43015869e+03,
          6.70446924e+03, 3.21990723e+03, 5.08041504e+03, 0., 0., 0., 0. ]
      - [ 4.65637695e+03, 3.26670557e+03, 5.37417822e+03, 1.36671558e+03,
          2.35396533e+03, 3.35800537e+02, 5.14648376e+02, 0.,
          1.83778857e+03, 2.56415186e+03, 6.59128235e+02, 5.26775085e+02,
          9.61787598e+02, 5.43255981e+02, 2.93727753e+02, 0.,
          1.79193506e+03, 0., 0., 0., 3.63517212e+03, 2.92444800e+03,
          9.34005554e+02, 3.97961523e+03, 0., 0., 4.34807037e+02,
          2.19608838e+03, 2.76222217e+03, 7.24208447e+03, 4.37198535e+03,
          2.73854224e+03, 2.34229462e+02, 0., 1.33317957e+03,
          2.33314014e+03, 1.71610962e+03, 4.60915332e+03, 5.98241943e+03,
          2.68469458e+03, 0., 6.05854858e+02, 1.55909351e+03,
          9.06298950e+02, 1.62894409e+03, 2.24033447e+03, 1.31300134e+03,
          2.32381323e+03, 3.67225073e+03, 1.73475061e+03, 2.52327393e+03,
          4.32459229e+03, 8., 0., 0., 1.98083704e+03, 5.72900879e+03,
          2.56303223e+03, 4.42951123e+03, 4.76717725e+03, 1.89360474e+03,
          0., 1.44013885e+02, 0. ]
      - [ 4.88077344e+03, 5.94956592e+03, 2.14710132e+03, 5.22429102e+03,
          0., 0., 0., 0., 4.24315088e+03, 2.64878687e+03, 2.55649170e+03,
          0., 1.72695129e+03, 0., 5.65685415e+00, 0., 3.25732300e+03,
          2.40416298e+01, 6.41404724e+01, 0., 3.53825562e+03,
          3.08247339e+03, 1.69243665e+03, 1.62385889e+03, 1.79803259e+03,
          4.24264050e+00, 0., 1.36565002e+02, 6.47172510e+03,
          4.25777051e+03, 3.87047339e+03, 2.20306616e+03, 0., 0., 0.,
          1.66192657e+02, 3.32232959e+03, 5.60062598e+03, 6.64142627e+03,
          3.75540771e+03, 0., 0., 0., 0., 1.02394629e+03, 4.17883350e+03,
          6.10505713e+03, 4.29252838e+02, 2.45527466e+03, 1.45766895e+03,
          1.90319006e+03, 3.93747192e+03, 1.70077087e+03, 5.54616966e+01,
          0., 1.94473950e+03, 3.81489551e+03, 2.33417334e+03,
          6.00874561e+03, 6.97234033e+03, 14., 0., 0., 1.93215466e+03 ]
      - [ 4.80755420e+03, 7.01944580e+03, 1.59188330e+03, 1.52959204e+03,
          1.64204919e+03, 1.61245155e+01, 0., 0., 1.72434497e+03,
          5.92313330e+03, 1.41845227e+03, 0., 0., 0., 0., 0.,
          3.24956689e+03, 8.86756897e+01, 0., 3.50989648e+03,
          1.17623987e+03, 5.02229034e+02, 5.29341125e+02, 8.51719421e+02,
          4.68490332e+03, 3.60575775e+02, 0., 1.73514819e+03,
          3.53770313e+03, 1.59271399e+03, 5.80415576e+03, 1.60651782e+03,
          1.90262985e+01, 0., 0., 0., 1.03417603e+03, 5.98357715e+03,
          5.05676855e+03, 2.56613550e+03, 24., 4.24264050e+00,
          5.96657372e+01, 1.36085547e+03, 7.12849243e+02, 1.69718201e+03,
          2.75295288e+03, 2.52922510e+03, 1.68133337e+03, 3.83837549e+03,
          3.13686230e+03, 1.60529639e+03, 0., 0., 0., 1.70673425e+03,
          1.73041858e+03, 6.01922803e+03, 4.72639307e+03, 3.43002148e+03,
          0., 0., 0., 0. ]
      - [ 6.21844336e+03, 1.76902551e+03, 2.47358325e+03, 2.38535620e+03,
          1.45447009e+03, 7.45312012e+02, 0., 0., 1.59875256e+03,
          4.25161328e+03, 2.30167236e+03, 7.50638428e+02, 0., 0., 0., 0.,
          1.06717151e+03, 0., 0., 1.26946594e+03, 2.27944434e+03,
          9.65638184e+02, 9.30660034e+02, 1.54235083e+03, 1.63134619e+03,
          0., 4.46542244e+01, 1.31862256e+03, 2.64808350e+03,
          3.36490845e+03, 3.08796484e+03, 2.36899805e+03, 8.81310364e+02,
          1.34680322e+03, 9.03978882e+02, 7.28453979e+02, 1.41164966e+03,
          2.51328076e+03, 3.62330176e+03, 2.96730591e+03, 1.75345367e+02,
          5.25602295e+02, 1.12294258e+02, 5.02067749e+02, 2.85944061e+02,
          2.31706885e+03, 3.56748169e+02, 2.44350806e+03, 0.,
          3.02636475e+03, 3.16722217e+03, 2.18295190e+03, 0., 0., 0., 0.,
          1.62266321e+03, 3.63331958e+03, 5.53724512e+03, 3.27775928e+03,
          1.25514946e+02, 0., 0., 0. ]
      - [ 0., 8.86252930e+03, 3.57332959e+03, 1.46375269e+03, 0.,
          1.44027771e+02, 6.58027344e+01, 0., 7.13370850e+02,
          3.93775366e+03, 2.65943433e+03, 9.84374878e+02, 0., 0., 0., 0.,
          2.39933813e+03, 5.81004410e+01, 1.31548242e+03, 1.05675122e+03,
          1.70529224e+03, 1.25950781e+03, 1.71164050e+03, 8.55358643e+02,
          1.27534778e+03, 1.84237524e+03, 4.24499702e+01, 2.05650879e+02,
          4.47740332e+03, 4.13531055e+03, 1.07656494e+03, 2.81830151e+03,
          0., 0., 0., 0., 4.03048193e+03, 4.94042969e+03, 3.30912305e+03,
          2.63105981e+03, 1.26000008e+02, 7.07106781e+00, 2.37541580e+02,
          1.28433362e+03, 1.99869800e+03, 2.61776587e+03, 2.88511426e+03,
          1.38167456e+03, 1.43986694e+03, 3.32692358e+03, 3.25806787e+03,
          3.07785059e+03, 1.38681519e+03, 1.84564346e+02, 1.13137083e+01,
          1.45997046e+03, 4.73232422e+03, 1.81833911e+03, 4.68430078e+03,
          3.15661816e+03, 3.16279541e+03, 0., 0., 6.61061279e+02 ]
      - [ 2.35539331e+03, 6.05690039e+03, 4.72966504e+03, 0., 0., 0., 0.,
          0., 2.00117896e+03, 1.23170667e+03, 2.01298535e+03, 0., 0.,
          2.16633331e+02, 0., 0., 2.06769604e+03, 4.24264069e+01,
          1.17200676e+02, 2.27284033e+03, 8.76524902e+02, 5.35111206e+02,
          2.22733017e+02, 6.72180054e+02, 2.98382544e+03, 1.10230286e+03,
          3.49322205e+02, 3.09987549e+02, 2.56565747e+03, 2.69406299e+03,
          3.54217847e+03, 2.36082593e+03, 0., 5.34197144e+02,
          1.58425305e+03, 1.81700403e+03, 8.22709534e+02, 1.43035059e+03,
          2.36564941e+03, 4.24912549e+03, 1.09526221e+03, 1.25376099e+03,
          1.73791418e+03, 1.62200928e+03, 8.09499817e+02, 4.30376556e+02,
          5.21376343e+02, 1.90055444e+03, 2.18527173e+03, 1.54336133e+03,
          2.94522803e+03, 3.05633130e+03, 0., 0., 5.97467163e+02,
          1.75002466e+03, 1.63624597e+03, 3.51008374e+03, 4.37562500e+03,
          4.05577563e+03, 0., 0., 0., 0. ]
      - [ 3.45070343e+02, 6.05550391e+03, 5.32801367e+03, 5.40628076e+03,
          1.24415871e+02, 0., 5.60357018e+01, 3.68401947e+02,
          1.50613562e+03, 2.05733594e+03, 4.18313037e+03, 1.89916931e+03,
          8., 0., 0., 1.88024780e+03, 0., 0., 0., 0., 4.03513892e+03,
          1.63745508e+03, 5.20028625e+02, 3.05464209e+03, 3.35499463e+03,
          3.53829163e+02, 0., 0., 3.35631104e+03, 5.23233594e+03,
          4.28863672e+03, 6.77965576e+03, 0., 1.94617569e+02, 0.,
          3.89750244e+03, 1.98603674e+03, 4.05230933e+03, 5.15842773e+03,
          2.23412939e+03, 1.81188550e+03, 1.51348312e+02, 0.,
          1.93589917e+03, 3.70353125e+03, 1.26367371e+03, 8.05462036e+02,
          3.97391675e+03, 1.07043481e+03, 2.83969556e+03, 1.72569434e+03,
          3.83973877e+03, 1.67816971e+02, 0., 0., 1.97837354e+03,
          4.89978418e+03, 2.48856055e+03, 5.20112500e+03, 5.13183740e+03,
          4., 0., 1.83847771e+01, 3.42932031e+03 ]
      - [ 2.50317676e+03, 4.55077051e+03, 2.03942468e+03, 2.04124097e+03,
          0., 0., 0., 0., 7.51149780e+02, 3.37448730e+03, 2.23181274e+03,
          0., 0., 0., 7.30068512e+01, 1.22122887e+02, 2.74409399e+03,
          1.41281769e+02, 0., 6.51062195e+02, 8.56182739e+02,
          7.67229004e+02, 4.45501953e+02, 7.64990295e+02, 2.46710864e+03,
          1.13208191e+03, 8.30128479e+01, 0., 2.11873315e+03,
          1.88955713e+03, 5.21042786e+02, 2.13360205e+03, 0., 0., 0.,
          1.10563440e+03, 1.43205481e+03, 1.48584729e+03, 2.35377686e+03,
          3.37069409e+03, 8., 3.81837654e+01, 0., 1.44881958e+03,
          1.87281995e+03, 5.67143738e+02, 3.73703583e+02, 1.97251929e+03,
          1.61616101e+03, 1352., 1.46873230e+03, 1.20377271e+03, 0., 0.,
          2.36602692e+02, 2.21872632e+03, 1.68591919e+03, 1.55175623e+03,
          1.47781311e+03, 2.96042188e+03, 0., 0., 0., 1.53712903e+03 ]
      - [ 3.46501367e+03, 1.34595935e+03, 6.60979443e+03, 1.70598438e+03,
          0., 0., 0., 1.12285347e+02, 1.52391113e+03, 1.74248218e+03,
          2.58743945e+03, 0., 0., 0., 0., 0., 2.43847119e+03,
          1.34648718e+03, 0., 0., 0., 0., 2.35083817e+02, 1.44566370e+03,
          3.84410522e+03, 1.40505298e+03, 2.33581079e+03, 4.20469971e+02,
          6.77446167e+02, 7.30564697e+02, 1.72392188e+03, 2.62379443e+03,
          6., 0., 0., 1.78088745e+03, 3.47592578e+03, 1.86615100e+03,
          3.87262012e+03, 1.38565894e+03, 2.26221130e+02, 3.79230804e+02,
          2.18549759e+02, 2.48892358e+03, 2.58320557e+03, 8.99975830e+02,
          6.05607117e+02, 1.40712146e+03, 9.86928955e+02, 4.63864160e+03,
          2.69183899e+02, 0., 0., 0., 3.00946808e+02, 2.19440283e+03,
          2.07789209e+03, 2.01601892e+03, 2.65046582e+03, 1.13207776e+03,
          3.84783051e+02, 7.44324158e+02, 8.30753418e+02, 1.94485461e+03 ]
      - [ 8.15292529e+03, 1.82843787e+03, 1.74464136e+03, 3.11239185e+03,
          0., 0., 0., 0., 3.19044824e+03, 2.60083594e+03, 8.44369629e+02,
          7.75767273e+02, 0., 0., 0., 3.60272125e+02, 1.54415125e+03,
          1.04442005e+01, 0., 0., 9.58966187e+02, 1.67876440e+03,
          1.16095605e+03, 2.99416797e+03, 3.34024414e+03, 1.69705620e+01,
          0., 0., 2.22933496e+03, 2.40641309e+03, 4.09126978e+03,
          6.62835449e+03, 3.92173424e+01, 0., 0., 0., 2.80496411e+03,
          4.19951270e+03, 3.24273193e+03, 6.66647607e+03, 6., 0., 0., 0.,
          5.96840027e+02, 1.55851611e+03, 2.66916748e+03, 3.64026904e+03,
          4.10307617e+03, 8.64323364e+02, 1.55835229e+03, 1.53521313e+03,
          0., 0., 0., 2.09955322e+03, 5.85201367e+03, 2.41939453e+03,
          6.78869727e+03, 1.76117981e+03, 0., 0., 0., 3.73304956e+03 ]
      - [ 4.46757813e+03, 6.65919434e+03, 3.36473828e+03, 3.64616089e+03,
          0., 0., 0., 0., 2.62469055e+02, 5.44590283e+03, 3.84019434e+03,
          0., 1.01390335e+02, 0., 0., 0., 3.05957349e+03, 8.48528099e+00,
          1.92353840e+01, 1.70325476e+03, 2.17113818e+03, 1.76967969e+03,
          1.78253552e+03, 1.55101465e+03, 3.15734692e+03, 2.44774704e+02,
          0., 0., 5.12993555e+03, 4.03199487e+03, 2.65154395e+03,
          3.41033179e+03, 0., 0., 0., 0., 3.64257202e+03, 3.66562817e+03,
          6.04177051e+03, 3.14984937e+03, 2.91547604e+01, 5.76591614e+02,
          1.77944922e+03, 5.84636612e+01, 1.59293921e+03, 8.78249390e+02,
          3.31038525e+03, 3.06248682e+03, 3.44395068e+03, 2.22411450e+03,
          2.31168579e+03, 3.44786084e+03, 2.29120056e+02, 0., 0.,
          2.36219086e+02, 5.97498926e+03, 9.96976807e+02, 6.77034766e+03,
          2.52747314e+03, 1.79630151e+03, 0., 1.13137083e+01,
          4.28870789e+02 ]
      - [ 2.99797266e+03, 5.10796875e+03, 6.18463086e+03, 0., 0., 0., 0.,
          3.78344269e+02, 8.20137817e+02, 5.87055713e+03, 1.33152344e+03,
          1.90252457e+02, 0., 0., 1.44803314e+02, 0., 3.96080811e+02,
          1.20415947e+02, 0., 0., 1.85391040e+03, 1.97799902e+03,
          1.43809180e+03, 1.16594312e+03, 2.42416284e+03, 0.,
          1.98297760e+02, 1.42014084e+02, 3.20062402e+03, 2.97763794e+03,
          2.45219580e+03, 4.46004541e+03, 1.01357214e+03, 1.41421354e+00,
          0., 1.12917969e+03, 2.04801538e+03, 1.74845764e+03,
          3.53351123e+03, 3.16186377e+03, 5.76493652e+02, 1.10300684e+03,
          8.59954102e+02, 1.08535425e+03, 6.39165100e+02, 4.52583679e+02,
          7.13460266e+02, 3.20063574e+03, 2.55663428e+03, 2.35836841e+03,
          1.92475891e+03, 3.07177710e+03, 0., 1.51644318e+02,
          5.65685415e+00, 1.49271561e+02, 3.67579175e+03, 4.38357617e+03,
          3.63251294e+03, 1.62676697e+03, 1.57550659e+03, 0., 0., 0. ]
      - [ 2.44552612e+03, 9.19309082e+03, 2.66698804e+03, 5.28100342e+02,
          0., 0., 0., 0., 0., 4.37683398e+03, 2.39517847e+03,
          2.83436066e+02, 0., 1.03247276e+02, 0., 0., 4.13032471e+03,
          2.24767113e+01, 0., 0., 2.47052222e+03, 1.27023621e+03,
          5.99249329e+02, 1.41703943e+03, 4.20384619e+03, 5.14003906e+01,
          0., 1.28127539e+03, 2.52154980e+03, 2.26548730e+03,
          2.85295557e+03, 1.83902954e+03, 0., 0., 0., 1.93052856e+03,
          2.53277637e+03, 1.99184961e+03, 6.29440234e+03, 3.13252100e+03,
          4., 6.93115082e+01, 2.11985840e+02, 3.81735156e+03,
          5.91472717e+02, 7.67371338e+02, 3.80954443e+03, 6.76912109e+02,
          8.23771820e+01, 1.77543872e+03, 4.88323389e+03, 1.88540552e+03,
          0., 1.67092789e+02, 7.07672272e+01, 2.67831177e+03,
          2.76916797e+03, 2.42802051e+03, 3.31912549e+03, 3.19437793e+03,
          2.28964917e+03, 0., 1.62126892e+02, 2.45456665e+03 ]
      - [ 4.82198340e+03, 2.49430933e+03, 3.75420874e+03, 1.94534192e+03,
          0., 2.08403458e+02, 1.04995232e+02, 0., 2.93476758e+03,
          3.87561426e+03, 1.50599597e+03, 7.47402161e+02, 0., 0., 0.,
          2.39102493e+02, 0., 0., 0., 1.05457214e+03, 7.98579956e+02,
          2.04373120e+03, 1.32371753e+03, 1.43670801e+03, 1.99216919e+03,
          0., 0., 1.05863696e+03, 1.17391089e+03, 2.78078760e+03,
          4.47789258e+03, 3.03374341e+03, 1.67850659e+03, 2.73037872e+02,
          6.03118591e+02, 2.12776886e+02, 9.04972046e+02, 1.68889026e+03,
          1.76046716e+03, 3.46491211e+03, 1.67081750e+03, 2.47951736e+02,
          5.67714661e+02, 7.63388489e+02, 0., 0., 8.30252136e+02,
          3.65515918e+03, 1.51785596e+03, 3.08652295e+03, 3.45889746e+03,
          7.39411926e+02, 0., 0., 2.34887207e+02, 0., 2.36679761e+03,
          2.67716260e+03, 5.18433301e+03, 2.43674219e+03, 0., 0.,
          7.21110249e+00, 0. ]
      - [ 6.84208154e+03, 4.14480664e+03, 2.79690894e+03, 1.91346643e+03,
          0., 0., 0., 0., 9.44546509e+02, 5.83147754e+03, 5.06359589e+02,
          0., 0., 0., 0., 7.55380707e+01, 3.42064258e+03, 0., 0.,
          1.22904358e+03, 8.57886902e+02, 8.71831360e+02, 5.61659485e+02,
          1.74069324e+03, 4.69320850e+03, 1.30268951e+02, 0., 0.,
          2.54042383e+03, 3.23960254e+03, 3.79728711e+03, 2.66694751e+03,
          0., 0., 0., 1.79119556e+03, 2.42834253e+03, 1.28697070e+03,
          3.98064868e+03, 4.30414648e+03, 4.35019562e+02, 1.61245155e+01,
          2.06270605e+03, 1.16696899e+03, 0., 1.71785889e+03,
          1.67096765e+03, 1.45537842e+03, 2.15605273e+03, 4.03676147e+03,
          2.47738184e+03, 1.97280066e+03, 0., 0., 0., 1.98923584e+03,
          2.43565332e+03, 4.87459961e+03, 3.96514941e+03, 3.50106494e+03,
          0., 0., 0., 0. ]
      - [ 3.86519727e+03, 4.14165527e+03, 3.34734302e+03, 0., 0., 0., 0.,
          0., 2.70019873e+03, 1.86860742e+03, 1.72104089e+03, 0., 0., 0.,
          0., 0., 2.89706055e+03, 0., 0., 0., 8.84173096e+02,
          1.82823340e+03, 1.95741248e+03, 1.38716699e+03, 2.72908398e+03,
          1.90546585e+02, 0., 0., 2.68045288e+03, 1.25610962e+03,
          3.83546118e+03, 2.72859399e+03, 6.37226807e+02, 3.47519775e+02,
          8.25928650e+02, 2.68135547e+03, 7.86173035e+02, 1.18576855e+03,
          5.29116016e+03, 4.54069629e+03, 0., 0., 0., 5.75311768e+02,
          8.94811035e+02, 4.11925488e+03, 1.96363489e+03, 0.,
          7.94638306e+02, 4.97945007e+02, 2.22875146e+03, 2.04005896e+03,
          1.18156628e+03, 0., 1.60928452e+02, 2.60417358e+03,
          3.60274268e+03, 1.49631958e+03, 2.19898291e+03, 3.78894922e+03,
          1.17959839e+03, 1.27349915e+02, 4.24264050e+00, 3.98658936e+03 ]
      - [ 2.58622827e+03, 1.35120386e+03, 3.68913965e+03, 1.11890308e+03,
          0., 0., 0., 0., 2.82446472e+02, 0., 3.07626404e+02,
          1.37295303e+02, 6.84527283e+02, 4.42307434e+02, 1.45247168e+03,
          2.30653418e+03, 8.79915137e+03, 1.76669052e+02, 0., 0.,
          6.99968567e+02, 0., 1.05989844e+03, 0., 5.57957275e+03, 0., 0.,
          1.71365625e+03, 1.41318408e+03, 1.07879602e+03, 7.99543884e+02,
          1.19863708e+03, 1.01580615e+03, 0., 0., 1.78393396e+03,
          1.86694971e+03, 1.09927124e+03, 4.77416748e+03, 2.53219238e+03,
          2.25883569e+03, 3.21422876e+03, 4.95889099e+02, 0.,
          7.43462646e+02, 3.84096344e+02, 4.37383728e+02, 1.47025793e+03,
          1.80353491e+03, 2.66313525e+03, 3.79987329e+03, 0.,
          3.33766403e+01, 9.48261566e+01, 2.60863953e+02, 1.99819263e+03,
          5.93210840e+03, 4.08822388e+03, 1.83892419e+03, 2.77923804e+03,
          4.79416290e+02, 0., 6.00333252e+01, 1.50484277e+03 ]
      - [ 6.80399854e+03, 3.64329761e+03, 3.44434961e+03, 1.88028784e+03,
          0., 0., 0., 0., 9.42618713e+02, 5.81586475e+03, 7.19117493e+02,
          0., 0., 1.75328262e+02, 0., 9.48683262e+00, 3.26520142e+03, 0.,
          0., 1.65061951e+03, 6.00519348e+02, 1.57772571e+03,
          1.44766858e+03, 1.36267651e+03, 3.71642920e+03, 1.58113880e+01,
          0., 0., 3.60284009e+03, 2.38282324e+03, 4.00852368e+03,
          3.20953223e+03, 9.17060547e+01, 0., 0., 1.82932007e+03,
          1.70244312e+03, 3.27062793e+03, 5.10777979e+03, 2.45708667e+03,
          0., 4.50228638e+02, 8.87657227e+02, 2.63838354e+03,
          7.61009827e+02, 6.62330688e+02, 2.18408691e+03, 2.14857153e+03,
          2.12113208e+03, 1.62935120e+03, 5.46827393e+03, 1.97610352e+03,
          2.48450409e+02, 0., 4.24264050e+00, 1.30421448e+03,
          2.97832007e+03, 3.03922339e+03, 6.59109668e+03, 3.59117310e+03,
          0., 0., 1.41421354e+00, 0. ]
      - [ 3.13355542e+03, 2.55960645e+03, 3.75615387e+02, 1.16332800e+03,
          0., 0., 0., 0., 2.63604932e+03, 1.25607861e+03, 3.32929413e+02,
          0., 0., 0., 0., 1.01805762e+03, 1.43523975e+03, 3.20315460e+02,
          0., 0., 6.81916443e+02, 9.14049255e+02, 0., 1.29038574e+03,
          1.15993591e+03, 0., 0., 8.54400406e+01, 1.34116187e+03,
          7.75074707e+02, 1.72128711e+03, 2.27699561e+03, 1.03997876e+03,
          0., 3.49284973e+01, 0., 6.54987488e+02, 1.82396387e+03,
          1.72797522e+03, 2.21488965e+03, 6.56002991e+02, 3.00734985e+02,
          4.87165283e+02, 3.78208923e+02, 0., 0., 1.23583887e+03,
          1.07522668e+03, 1.50374243e+03, 2.73467383e+03, 6.13098694e+02,
          5.33810852e+02, 0., 0., 5.65685415e+00, 0., 3.66898584e+03,
          2.87221899e+03, 1.77661060e+03, 7.38075867e+02, 0., 0., 0., 0. ]
      - [ 7.27068164e+03, 5.35783203e+03, 1.56927869e+03, 4.34775049e+03,
          0., 0., 0., 0., 1.51656177e+03, 3.12158325e+03, 1.67837085e+03,
          0., 0., 0., 0., 4.83083832e+02, 3.67919141e+03, 1.25801422e+02,
          0., 1.23829211e+03, 9.30222778e+02, 8.13744385e+02,
          1.28110291e+03, 8.78084229e+02, 3.50805762e+03, 0., 0., 0.,
          4.67127197e+03, 3.01114209e+03, 2.66133960e+03, 5.95649463e+03,
          7.41421631e+02, 0., 3.44093018e+01, 0., 2.83359204e+03,
          6.11530078e+03, 2.64134692e+03, 6.47700293e+03, 1.04886365e+03,
          2.82842708e+00, 6.93541641e+01, 1.64925964e+03, 9.35077026e+02,
          1.14904724e+03, 2.08062500e+02, 3.02414087e+03, 2.61342163e+03,
          2.81697681e+03, 2.24849902e+03, 2.41234329e+02, 0.,
          6.80147018e+01, 1.76590481e+01, 4.30716455e+03, 3.45358252e+03,
          3.99608081e+03, 4.43534668e+03, 4.33888037e+03, 0., 0., 0., 0. ]
      - [ 2.65549658e+03, 8.64083105e+03, 4.21363721e+03, 0., 0., 0., 0.,
          0., 0., 2.72994019e+03, 5.93295532e+02, 0., 0., 0., 0.,
          1.35464355e+03, 3.98406830e+02, 1.56204996e+01, 2.19544983e+01,
          0., 9.67231812e+02, 1.27391064e+03, 1.03939209e+03,
          1.79418005e+03, 1.16301270e+03, 7.30951416e+02, 0., 0.,
          1.76936584e+03, 5.92178760e+03, 2.40937793e+03, 7.41119238e+03,
          9.16651489e+02, 2.30841934e+02, 3.10228943e+02, 1.83551880e+03,
          1.83521472e+03, 3.81005884e+03, 2.96890527e+03, 7.48810449e+03,
          6.34670593e+02, 5.07828735e+02, 1.87330078e+03, 5.72601807e+02,
          7.60322266e+02, 1.11453613e+03, 0., 1.30206213e+03,
          2.37126465e+03, 1.54753577e+03, 2.98479810e+03, 7.85592773e+02,
          0., 0., 1.00788338e+02, 2.70010156e+03, 6.38835156e+03,
          3.63923975e+03, 1.11150342e+03, 6.43183203e+03, 8.60929718e+01,
          0., 0., 0. ]
      - [ 5.62380078e+03, 4.81929004e+03, 7.29729297e+03, 2.47687939e+03,
          0., 0., 0., 1.84390888e+01, 4.81040535e+01, 1.32151868e+03,
          3.08249023e+03, 1.46750012e+03, 2., 0., 0., 0., 1.87539771e+03,
          0., 0., 2.01606409e+03, 1.21321484e+03, 1.78705359e+03,
          8.97587891e+02, 5.49102905e+02, 1.51494507e+03, 5.67367249e+02,
          1.35951096e+02, 8.65555298e+02, 3.76859985e+03, 2.57482813e+03,
          8.39589648e+03, 3.40444263e+03, 1.47336633e+03, 3.85253174e+02,
          7.92315613e+02, 6.77043701e+02, 2.81813574e+03, 2.48377002e+03,
          3.02623022e+03, 8.64674121e+03, 1.78996460e+03, 3.50087982e+02,
          1.35379517e+03, 1.77627905e+03, 0., 0., 1.51856372e+03,
          2.17968311e+03, 0., 3.11306177e+03, 2.39759473e+03,
          1.98788354e+03, 0., 0., 1.03391708e+02, 1.87424097e+03,
          8.57054980e+03, 1.27754846e+03, 1.61830554e+03, 7.21474268e+03,
          3.04146301e+02, 0., 0., 0. ]
      - [ 5.01012842e+03, 6.62336230e+03, 2.18417773e+03, 1.91544299e+03,
          0., 0., 0., 0., 3.26331152e+03, 3.38515454e+03, 2.74590607e+01,
          0., 0., 0., 2.07190369e+02, 1.00428302e+03, 2.12570825e+03, 0.,
          5.69385643e+01, 0., 6.61877625e+02, 750., 1.67258667e+03,
          2.40220898e+03, 2.09418408e+03, 0., 0., 0., 1.90424146e+03,
          3.65600269e+03, 2.16886890e+03, 6.93140137e+03, 0., 0., 0., 0.,
          2.93257202e+03, 1.73927783e+03, 4.22834229e+03, 4.82011621e+03,
          2.41005957e+03, 4.17015717e+02, 7.41594360e+02, 1.07170825e+03,
          0., 5.94255859e+02, 8.48964111e+02, 4.75508301e+03,
          2.26333887e+03, 3.22178589e+03, 2.10466895e+03, 0.,
          1.64073151e+02, 0., 1.41421356e+01, 2.15612695e+03,
          4.30890918e+03, 3.49583936e+03, 4.52526318e+03, 1.88445801e+03,
          0., 0., 0., 0. ]
      - [ 3.64108862e+03, 3.89912891e+03, 1.78748621e+03, 2.88987549e+03,
          2.19842212e+03, 0., 2.12132034e+01, 0., 4.61289490e+02,
          8.94186768e+02, 7.34418152e+02, 1.57421802e+03, 0.,
          1.94605884e+03, 4.05384277e+02, 3.60773956e+02, 3.38079932e+03,
          4.88262215e+01, 0., 6.72241028e+02, 1.16994165e+03,
          1.55277246e+03, 7.30080811e+02, 1.67079126e+03, 3.98330566e+03,
          1.90262970e+02, 0., 0., 3.54914282e+03, 2.84767041e+03,
          3.79957495e+03, 3.05692505e+03, 3.35216370e+02, 0.,
          1.74774139e+02, 5.30693909e+02, 2.10463574e+03, 2.57481616e+03,
          4.82755664e+03, 4.70957471e+03, 3.37351349e+02, 0., 0., 0.,
          3.03579395e+03, 6.18444824e+02, 1.34164502e+03, 5.83596863e+02,
          3.46064526e+03, 1.76343384e+03, 1.72702649e+03, 1.97825513e+03,
          0., 0., 1.14434883e+02, 3.43336084e+03, 3.48960107e+03,
          4.34656152e+03, 3.18980859e+03, 2.76852100e+03, 1.15188257e+03,
          0., 0., 1.71685437e+03 ]
      - [ 3.12735229e+02, 6.45998779e+03, 6.64562158e+03, 1.91192749e+03,
          0., 0., 0., 3.96232262e+01, 0., 1.94955139e+03, 1.18073682e+03,
          8.08810730e+02, 1.54769434e+03, 1.26590698e+03, 0., 0.,
          1.44546619e+03, 0., 0., 0., 2.52102563e+03, 3.28713647e+03,
          1.48977649e+03, 1.15487659e+03, 1.17692517e+03, 1.48550098e+03,
          6.63815918e+02, 1.07116760e+02, 4.93387988e+03, 3.78487158e+03,
          2.98588257e+03, 3.74134521e+03, 0., 0., 0., 3.11441138e+03,
          1.53668762e+03, 3.30941577e+03, 5.55039746e+03, 8.15188843e+02,
          2.60570850e+03, 6.90367249e+02, 1.68728467e+03, 1.66972546e+03,
          1.33327637e+03, 1.78255811e+03, 1.12329224e+03, 3.99542236e+02,
          2.93237744e+03, 2.60451831e+03, 1.09126514e+03, 4.04912622e+03,
          5.40034973e+02, 0., 6.10074951e+02, 2.39054736e+03,
          3.03925269e+03, 2.43370483e+03, 4.68048096e+03, 5.01507422e+03,
          26., 8.63712921e+01, 5.93969688e+01, 1.44281226e+03 ]
      - [ 6.39044434e+03, 3.97740796e+03, 1.35033655e+03, 9.55931396e+02,
          7.91854797e+02, 1.46037122e+03, 0., 1.30297925e+03,
          8.05358838e+03, 0., 0., 0., 0., 0., 0., 4.00510895e+02,
          6.99611084e+02, 9.89949512e+00, 0., 1.71221826e+03,
          3.34293274e+02, 7.89227478e+02, 0., 4.64128857e+03,
          6.16116821e+02, 0., 0., 0., 1.93724866e+03, 3.96784082e+03,
          4.16474902e+03, 4.67993701e+03, 3.37116919e+03, 4.18502075e+02,
          1.25286365e+03, 3.26459778e+02, 1.17809631e+03, 2.32770166e+03,
          2.26890894e+03, 2.65225098e+03, 3.25916406e+03, 5.82897400e+02,
          2.69072475e+01, 0., 0., 0., 1.88714587e+03, 2.80113428e+03,
          1.43763184e+03, 2.85738159e+03, 3.81971704e+03, 0., 0.,
          3.36154709e+01, 0., 0., 5.33700732e+03, 4.15232861e+03,
          3.37674048e+03, 3.84062573e+03, 0., 0., 0., 0. ]
      - [ 4.26966895e+03, 8.03486621e+03, 4.82764746e+03, 0., 0., 0., 0.,
          0., 0., 2.08006470e+03, 290., 0., 0., 0., 0., 0.,
          2.77787500e+03, 0., 0., 0., 1.50378784e+03, 4.20059540e+02,
          7.93516235e+02, 4.99729919e+02, 3.29243921e+03, 1.81876929e+03,
          0., 0., 2.66342480e+03, 2.77192773e+03, 6.81727100e+03,
          3.36810938e+03, 6.53694092e+02, 0., 0., 1.94788342e+03,
          8.71878662e+01, 3.53100977e+03, 6.07874512e+03, 3.04627490e+03,
          2.12979565e+03, 1.63405090e+03, 8.03508789e+02, 2.78603668e+02,
          6.00030029e+02, 8.45196167e+02, 0., 1.10315112e+03,
          2.41015845e+03, 3.13637695e+03, 1.26244299e+03, 6.16344055e+02,
          0., 0., 7.49036926e+02, 3.33282983e+03, 3.38864038e+03,
          6.10543359e+03, 2.37795508e+03, 2.03662659e+03, 2.02649280e+03,
          0., 0., 7.87534119e+02 ]
      - [ 3.38407471e+03, 1.01345586e+04, 2.91770239e+03, 6.11589722e+02,
          0., 0., 0., 0., 6.33245583e+01, 2.65878784e+03, 5.73335083e+02,
          0., 0., 0., 0., 5.30848389e+01, 2.11483179e+03, 0., 0.,
          9.05538559e+00, 1.03521204e+03, 1.37586475e+03, 8.10535645e+02,
          3.81811493e+02, 2.70366089e+03, 1.06614771e+03, 0., 0.,
          2.73521680e+03, 4.34098047e+03, 3.97424121e+03, 5.76946289e+03,
          1.37149243e+03, 0., 3.70148376e+02, 1.84567004e+03,
          1.82568237e+03, 6.84763367e+02, 5.68970361e+03, 7.52804590e+03,
          1.11112556e+02, 6.73595032e+02, 8.25528931e+02, 9.84386597e+02,
          9.99908997e+02, 1.21548364e+03, 8.46550659e+02, 0.,
          3.04082593e+03, 7.14467651e+02, 1.37364221e+03, 2.73022632e+03,
          0., 0., 1.69522858e+02, 3.52049951e+03, 5.58310010e+03,
          2.13917017e+03, 3.95968945e+03, 4.50138379e+03, 1.43031464e+02,
          0., 0., 0. ]
      - [ 3.67045605e+03, 4.67382422e+03, 8.02428223e+03, 1.86711877e+03,
          0., 0., 0., 1.57835358e+02, 1.48690332e+03, 1.70777637e+03,
          4.73488428e+03, 0., 0., 0., 0., 0., 1.85731201e+03,
          1.62413055e+02, 0., 0., 1.77694727e+03, 3.51909839e+03,
          1.81058838e+03, 0., 0., 0., 0., 0., 4.08947388e+03,
          4.72333887e+03, 6.23403906e+03, 1.81273376e+03, 1.85769409e+03,
          7.07517639e+02, 4.71425507e+02, 8.46275330e+02, 1.49673291e+03,
          3.30912769e+03, 5.58001025e+03, 5.24218359e+03, 1.37246191e+03,
          1.56800586e+03, 1.32341626e+03, 3.80087921e+02, 0.,
          6.45479309e+02, 3.06992847e+03, 2.94976001e+03, 0.,
          3.26525586e+03, 1.34389722e+03, 3.08949487e+03, 4.06276123e+03,
          8.98109131e+01, 1.13137083e+01, 4.59009796e+02, 4.02762866e+03,
          4.62116357e+03, 3.61208350e+03, 8.10194336e+03, 9.10584183e+01,
          0., 0., 0. ]
      - [ 3.93381812e+03, 9.70782715e+03, 3.76183105e+03, 1.75487500e+03,
          7.18470612e+01, 0., 2.82842708e+00, 0., 50., 1.65070947e+03,
          9.15480103e+02, 0., 0., 0., 0., 0., 4.39958594e+03,
          5.13143921e+02, 1.02956305e+01, 1.21724841e+03, 8.50843994e+02,
          8.67139221e+02, 5.21724670e+02, 7.28512146e+02, 1.21986731e+03,
          3.34160889e+03, 0., 0., 7.92765381e+03, 3.89068335e+03,
          2.93656079e+03, 3.09888110e+03, 0., 0., 0., 0., 6.83545166e+02,
          1.31021934e+04, 2.60142773e+03, 3.96541724e+03, 0.,
          7.12933411e+02, 1.66994751e+03, 2.00428369e+03, 0.,
          1.48168359e+03, 1.78194556e+03, 1.33482935e+03, 2.29488184e+03,
          1.00564954e+03, 4.18600439e+03, 2.46889282e+03, 2.46042999e+02,
          0., 7.12272034e+02, 4.91859668e+03, 4.79841644e+02,
          3.54222461e+03, 6.86599072e+03, 7.84345117e+03, 8.50199890e+01,
          0., 0., 6.73998413e+01 ]
      - [ 1.98351135e+03, 9.41755554e+02, 9.09429980e+03, 1.94992004e+03,
          0., 0., 0., 0., 8.02974487e+02, 6.82565735e+02, 3.13961206e+03,
          1.68694580e+03, 0., 0., 2.47705371e+03, 1.03795544e+03,
          3.86931812e+03, 8.70669785e+01, 0., 1.54114844e+03,
          1.52913928e+03, 7.42612183e+02, 1.14600891e+03, 3.94856934e+02,
          5.52884717e+03, 2.62481155e+01, 0., 1.63986987e+03,
          1.62350232e+03, 3.73838745e+03, 1.78991077e+03, 4.18148828e+03,
          2.49899979e+02, 0., 0., 3.00608276e+03, 2.91814673e+03,
          3.71943066e+03, 4.22707031e+03, 4.11259131e+03, 0.,
          2.54558449e+01, 2.41503735e+03, 4.28316992e+03, 0.,
          8.68990234e+02, 1.41101880e+03, 2.70341895e+03, 2.08829785e+03,
          1.38914539e+03, 3.83318652e+03, 3.26843896e+03, 9.57078857e+01,
          0., 0., 2.84319482e+03, 4.74123242e+03, 2.12105591e+03,
          2.98385767e+03, 6.71202881e+03, 0., 0., 9.89949512e+00,
          1.99325110e+03 ]
      - [ 3.02989209e+03, 7.79071631e+03, 7.48387549e+03, 0., 0., 0., 0.,
          0., 0., 2.55397559e+03, 3.02324333e+01, 0., 0., 0., 0.,
          4.82506371e+01, 4.03998682e+03, 0., 0., 0., 1.48368567e+03,
          4.10307220e+02, 1.71596375e+03, 1.35374023e+03, 1.92303296e+03,
          2.04980371e+03, 0., 2.10237961e+01, 3.84422729e+03,
          6.17236084e+03, 2.70493896e+03, 4.05736865e+03, 0., 0.,
          1.68884567e+02, 1.93785181e+03, 1.94604517e+03, 4.01948120e+03,
          6.44771631e+03, 6.28274854e+03, 0., 0., 2.21294775e+03,
          2.15406590e+01, 7.64407715e+02, 1.17207373e+03, 1.28257324e+03,
          1.41560510e+03, 1.23737512e+03, 2.60831909e+03, 3.00987476e+03,
          5.45883118e+02, 0., 0., 2.82842708e+00, 4.79479150e+03,
          5.05306201e+03, 2.15244580e+03, 4.63886279e+03, 4.91414014e+03,
          2.03517285e+03, 0., 0., 1.90604858e+03 ]
      - [ 8.02067285e+03, 2.70489209e+03, 3.09588037e+03, 2.45250537e+03,
          1.42045862e+03, 0., 2.93993225e+02, 4.06831665e+02,
          5.08289551e+03, 7.78553650e+02, 6.01490662e+02, 0.,
          2.30824615e+02, 1.48038208e+03, 0., 8.82836304e+01, 0., 0.,
          9.43398132e+01, 0., 6.56489136e+02, 2.96308496e+03,
          1.88906970e+03, 3.33965381e+03, 2.45134106e+03, 0., 0., 0.,
          3.63784888e+03, 4.40125439e+03, 3.07380664e+03, 9.75131152e+03,
          2.78926514e+02, 0., 0., 1.56093896e+03, 2.34307495e+02,
          8.45924121e+03, 5.26220020e+03, 3.32265234e+03, 6., 0., 0., 0.,
          0., 4.54730664e+03, 3.54211255e+03, 0., 1.67894910e+03,
          9.08051147e+02, 2.44619897e+03, 3.38569971e+03, 8.35703278e+01,
          0., 2.44131107e+01, 1.44904895e+03, 4.09964551e+03,
          4.45075635e+03, 8.11514795e+03, 1.70258423e+03, 0.,
          1.50864182e+02, 2.11564746e+03, 1.91295752e+03 ]
      - [ 3.78627881e+03, 1.07706729e+04, 1.61543054e+03, 8.24779236e+02,
          0., 0., 0., 0., 0., 1.67200485e+02, 7.20931641e+02, 0., 0., 0.,
          1.41421354e+00, 0., 2.02652417e+03, 2.60768089e+01, 0., 0.,
          1.16526660e+03, 156., 1.17846594e+03, 7.59815186e+02,
          1.72397168e+03, 1.53073877e+03, 0., 2.70185127e+01,
          2.66110938e+03, 2.91588843e+03, 5.34794336e+03, 5.58676172e+03,
          0., 4.47213602e+00, 1.15394974e+02, 0., 1.90565491e+03,
          3.09384937e+03, 5.03083838e+03, 7.49436719e+03, 6.32455540e+00,
          7.38241119e+01, 0., 8.88877563e+02, 2.22144104e+02, 0.,
          5.47346313e+02, 1.47220917e+02, 0., 1.32749048e+03,
          2.17870947e+03, 3.77224060e+02, 0., 0., 1.32315231e+02,
          5.55277246e+03, 2.41009497e+03, 4.89730078e+03, 3.63559570e+03,
          2.82742578e+03, 1.69744092e+03, 0., 0., 2.74087476e+03 ]
      - [ 2.97749951e+03, 7.14486865e+03, 1.20390710e+03, 2.12639917e+03,
          1.98101587e+03, 0., 0., 0., 1.97276978e+03, 1.98071460e+03,
          9.89743286e+02, 8.56359741e+02, 2.29918799e+03, 0., 0.,
          7.50599747e+01, 1.50937146e+03, 1.07703560e+02, 0., 0.,
          1.64584680e+03, 1.57179492e+03, 1.97868750e+03, 4.53891455e+03,
          1.66828943e+03, 0., 0., 0., 3.13881641e+03, 3.66296484e+03,
          3.00946118e+03, 6.06124219e+03, 0., 0., 0., 0., 3.04185669e+03,
          8.93735156e+03, 2.45659326e+03, 3.20064819e+03, 0., 0., 0.,
          1.09772491e+02, 5.78159375e+03, 3.10858887e+03, 1.56836621e+03,
          0., 2.01387402e+03, 3.07562378e+03, 3.15148511e+03,
          2.24973071e+03, 5.32874756e+02, 0., 0., 1.52669678e+03,
          2.98828711e+03, 4.82898779e+03, 4.01126636e+03, 4.53290381e+03,
          18., 0., 4.66690483e+01, 1.50983325e+03 ]
      - [ 5.35132275e+03, 9.19706055e+03, 1.40902856e+03, 6.48063843e+02,
          0., 1.20830460e+01, 0., 0., 0., 2.37928574e+02, 9.20977707e+01,
          0., 10., 0., 0., 0., 4.60342773e+03, 1.47648230e+01, 0., 0.,
          2.70682343e+02, 5.68330566e+02, 0., 2.37507904e+02,
          5.16480408e+02, 7.71109192e+02, 1.21655243e+02, 0.,
          2.03135229e+03, 6.25239551e+03, 2.77466772e+03, 3.31120361e+03,
          0., 0., 0., 0., 2.05294580e+03, 1.48939038e+03, 8.14340088e+03,
          5.40489697e+03, 1.72908264e+02, 5.93976501e+02, 2.44806046e+02,
          0., 8.73791748e+02, 0., 3.80573273e+02, 0., 0., 5.34222778e+02,
          1.50416980e+03, 8.02653870e+02, 0., 0., 5.67133789e+02,
          2.91171973e+03, 4.52472412e+03, 3.09085742e+03, 5.92629102e+03,
          3.57244458e+03, 0., 0., 3.71534821e+02, 6.43000793e+02 ]
      - [ 3.82440674e+03, 5.81063379e+03, 3.05081177e+03, 2.93402808e+03,
          3.53386475e+02, 0., 0., 0., 3.01317108e+02, 4.10828271e+03,
          2.45309399e+03, 0., 0., 0., 8.79204178e+01, 0., 3.74666650e+03,
          8.18413086e+01, 0., 1.69414575e+03, 1.57735156e+03,
          7.24666260e+02, 7.90121521e+02, 6.20653076e+02, 5.70318311e+03,
          4.07185440e+01, 0., 0., 4.67385938e+03, 3.63352808e+03,
          2.89582886e+03, 3.48853491e+03, 0., 0., 0., 0., 3.27559180e+03,
          4.13694678e+03, 4.60427588e+03, 4.03158984e+03, 14., 0.,
          9.59679810e+02, 9.01039124e+02, 8.43821106e+02, 1.12548608e+03,
          8.96129517e+02, 3.90909106e+03, 1.58561499e+03, 3.40168726e+03,
          1.75659839e+03, 1.69635693e+03, 0., 0., 0., 2.10013379e+03,
          4.81539160e+03, 3.09062964e+03, 4.24909961e+03, 4.94604785e+03,
          42., 0., 4.24264050e+00, 1.82301563e+03 ]
      - [ 2.77398096e+03, 3.86420215e+03, 3.91983887e+03, 4.01834644e+03,
          0., 0., 0., 0., 0., 2.22483301e+03, 1.59450562e+03,
          1.47863257e+03, 0., 0., 2.82842708e+00, 0., 1.27002661e+03,
          8.42721024e+01, 1.96621475e+02, 1.47863843e+03, 9.31996826e+02,
          1.11818579e+03, 8.35418457e+02, 2.65198029e+02, 3.16094092e+03,
          5.15321228e+02, 8.40595093e+01, 0., 4.35784326e+03,
          3.32785254e+03, 1.93966797e+03, 4.08645142e+03, 2.01717621e+02,
          0., 1.87378723e+03, 1.01843591e+03, 1.35095764e+03,
          2.57638135e+03, 1.30037585e+03, 7.23319971e+03, 3.16950775e+02,
          1.08452751e+02, 0., 0., 6.09066528e+02, 1.21575610e+03,
          1.35126758e+03, 9.19535706e+02, 1.31569543e+03, 1.32732007e+03,
          2.19569263e+03, 0., 0., 0., 9.92208633e+01, 4.74908643e+03,
          2.03759985e+03, 2.78628198e+03, 2.52441504e+03, 4.05769141e+03,
          7.07106781e+00, 0., 0., 2.36896533e+03 ]
      - [ 1.76666614e+03, 6.26421094e+03, 7.30936035e+03, 8.92860565e+01,
          0., 0., 0., 0., 0., 4.53017188e+03, 0., 0., 4.21900444e+01, 0.,
          1.41421354e+00, 0., 2.90489551e+03, 4.24264050e+00,
          2.05912613e+02, 0., 1.44469824e+03, 9.41387329e+02,
          1.21427979e+03, 8.45869995e+02, 5.32205859e+03, 4.96882660e+02,
          0., 0., 5.06898779e+03, 2.13310815e+03, 3.24745630e+03,
          4.52908643e+03, 0., 0., 1.56588623e+02, 1.70603442e+03,
          2.05125049e+03, 3.65709741e+03, 2.48472314e+03, 6.84832813e+03,
          0., 0., 1.66300745e+03, 4.56974823e+02, 3.19192078e+02,
          1.97756909e+03, 3.28806494e+03, 0., 1.55893481e+03,
          8.50963745e+02, 2.85639624e+03, 2.45435474e+03, 4.68187981e+01,
          0., 9.27253784e+02, 2.53339844e+03, 3.94536157e+03,
          1.92852563e+03, 4.71737061e+03, 3.47727954e+03, 1.87905823e+03,
          5.05371132e+01, 1.39978561e+02, 3.07147876e+03 ]
      - [ 7.41689648e+03, 1.57311523e+03, 2.11988257e+03, 1.89122998e+03,
          0., 70., 3.61092773e+02, 1.47819849e+03, 3.67770288e+03, 0.,
          1.47482141e+03, 6.50073853e+02, 0., 0., 5.18844833e+01,
          9.87356140e+02, 2.40679785e+03, 4.51884956e+01, 6.09590034e+01,
          0., 0., 1.58861584e+03, 6.65884338e+02, 4.24741895e+03,
          1.81708472e+03, 0., 0., 0., 2.44285498e+03, 2.32144043e+03,
          2.22266040e+03, 5.27261230e+03, 0., 0., 0., 0., 3.56492993e+03,
          2.67308545e+03, 2.87008081e+03, 5.48688037e+03, 4.85590576e+02,
          0., 0., 8.70517120e+01, 1.61732239e+03, 1.47889392e+03,
          3.19834302e+03, 2.57388184e+03, 4.19982861e+03, 9.20228455e+02,
          7.64376892e+02, 8.38002380e+02, 1.82109753e+03, 0.,
          1.26370239e+02, 2.60009253e+03, 3.15287451e+03, 3.38904883e+03,
          2.66976416e+03, 3.35965601e+03, 0., 0., 0., 1.38506226e+03 ]
      - [ 6.16525439e+03, 6.67318701e+03, 2.33327319e+03, 1.77234692e+03,
          0., 0., 0., 0., 4.97135803e+02, 5.16976074e+03, 2.76698395e+02,
          0., 7.22357254e+01, 0., 0., 0., 5.61838867e+03, 1.27279224e+01,
          0., 2.00654370e+03, 1.33959814e+03, 1.27586133e+03,
          9.22279724e+02, 4.28777344e+02, 3.44934375e+03, 2.37203247e+03,
          0., 0., 4.01571729e+03, 5.41613477e+03, 2.81448975e+03,
          1.87411084e+03, 0., 0., 0., 1.54563904e+02, 1.70780591e+03,
          4.57963965e+03, 1.00426572e+04, 1.29346570e+03, 1.50014709e+02,
          1.49003357e+02, 3.92173431e+02, 1.49081006e+03, 1.40356689e+02,
          3.33519238e+03, 2.98457642e+03, 4.13303772e+02, 1.88063892e+03,
          5.61106201e+03, 2.48545313e+03, 1.35258960e+03, 6.70074615e+01,
          0., 2.86356430e+01, 1.84979614e+03, 4.40903174e+03,
          7.01167725e+03, 2.92808398e+03, 4.66652344e+03, 0., 0., 0., 0. ]
      - [ 2.93578027e+03, 2.85459351e+03, 2.54754126e+03, 6.03928418e+03,
          0., 6.30079346e+01, 0., 0., 0., 4.05947290e+03, 1.53605310e+03,
          1.15516113e+03, 0., 0., 4.24264050e+00, 1.91915210e+03,
          3.08005444e+03, 8.48528099e+00, 0., 0., 2.76214746e+03,
          1.15518640e+03, 9.13612610e+02, 3.36819385e+03, 2.36728516e+03,
          4.51884918e+01, 0., 0., 1.82235925e+03, 5.70910840e+03,
          4.86570166e+03, 2.59574683e+03, 0., 2.68365417e+02,
          2.50284033e+03, 3.56999292e+03, 2.45283508e+02, 4.60857617e+03,
          2.09155322e+03, 4.35625537e+03, 3.41760303e+03, 8.95879440e+01,
          0., 0., 1.99220020e+03, 2.53918506e+03, 1.35692554e+03,
          1.94915942e+03, 3.76417993e+03, 1.44431152e+03, 2.58516431e+03,
          2.40733838e+03, 0., 0., 0., 5.01562061e+03, 4.56080469e+03,
          2.22961157e+03, 3.55185352e+03, 4.41698877e+03, 2.34495044e+03,
          0., 5.65685415e+00, 1.87820264e+03 ]
      - [ 4.46464893e+03, 3.75172803e+03, 2.59882251e+03, 3.61468530e+03,
          1.92282617e+03, 0., 0., 1.67600723e+02, 1.56978491e+03,
          1.77707617e+03, 1.07823694e+03, 1.82744275e+03, 0., 0., 0.,
          4.17851639e+01, 1.68456287e+03, 4.21435638e+02, 0., 0., 0.,
          1.48281152e+03, 3.31587988e+03, 3.85005225e+03, 0., 0., 0., 0.,
          3.70081323e+03, 4.77795947e+03, 6.17403516e+03, 2.06658667e+03,
          0., 0., 2.67818018e+03, 1.62552673e+03, 3.03844971e+03,
          3.31006836e+03, 4.15388477e+03, 3.87441895e+03, 1.98923547e+03,
          0., 0., 0., 1.74137744e+03, 2.70343994e+03, 2.37488379e+03, 0.,
          3.23766113e+03, 3.27792651e+03, 1.71403284e+03, 1.43443726e+03,
          0., 0., 7.40945358e+01, 1.99125500e+03, 4.33807031e+03,
          3.97002930e+03, 4.03447339e+03, 4.79868359e+03, 1.99651453e+03,
          0., 0., 0. ]
      - [ 6.08152954e+02, 2.84871436e+03, 8.12324658e+03, 3.32903491e+03,
          0., 0., 0., 0., 1.56894867e+02, 1.10992285e+03, 1.14377283e+03,
          2.00132599e+02, 0., 0., 1.49702319e+03, 2.79969434e+03,
          3.98616577e+03, 5.07740097e+01, 0., 3.27074921e+02,
          2.56511548e+03, 1.28225415e+03, 8.84182068e+02, 2.85236755e+02,
          1.89644873e+03, 4.46285449e+03, 0., 0., 3.80053516e+03,
          6.23190625e+03, 2.13124341e+03, 4.01195508e+03, 0.,
          4.95782204e+01, 0., 2.01797266e+03, 3.24781689e+03,
          5.57550293e+03, 4.11017139e+03, 1.97124976e+03, 3.10883594e+03,
          1.12357739e+03, 0., 0., 8.52976135e+02, 1.46314978e+03,
          5.91797974e+02, 3.23109894e+01, 2.23793164e+03, 2.05280957e+03,
          8.33576660e+02, 1.97788135e+03, 1.85326736e+02, 0.,
          1.98010101e+02, 3.89574146e+03, 2.98551416e+03, 4.95120459e+03,
          5.26410693e+03, 2.72662891e+03, 1.92031689e+03, 1.07095435e+03,
          1.00790234e+03, 1.97524988e+03 ]
      - [ 2.68400146e+03, 6.25797119e+03, 5.95778711e+03, 1.87146570e+03,
          0., 0., 0., 0., 1.83790967e+03, 2.96295776e+03, 2.29962451e+03,
          2.05197693e+02, 0., 9.54148865e+01, 0., 0., 3.59765320e+02, 0.,
          0., 1.67142505e+03, 1.89539197e+03, 9.35479553e+02,
          8.04061646e+02, 7.53160034e+02, 2.26668799e+03, 1.31603223e+03,
          0., 0., 5.10508984e+03, 2.22455249e+03, 4.26520752e+03,
          4.65339551e+03, 1.39769788e+03, 0., 1.16517151e+03, 0.,
          6.03072607e+03, 4.19731396e+03, 7.49040100e+02, 2.16072583e+03,
          3.78470361e+03, 7.60452515e+02, 3.34212494e+02, 2.58622974e+03,
          8.12009888e+02, 6.09777039e+02, 1.04293042e+03, 2.15365161e+03,
          2.69907422e+03, 1.29926794e+03, 1.28134851e+03, 7.95181763e+02,
          2.01178027e+03, 2.68923767e+02, 1.39489001e+03, 1.45062256e+03,
          1.82370667e+03, 4.88381104e+03, 2.82563696e+03, 3.77193994e+03,
          1.82544299e+03, 0., 2.51765762e+02, 1.50436084e+03 ]
      - [ 5.35770068e+03, 7.05271436e+03, 2.22800366e+03, 2.38722168e+03,
          0., 0., 0., 0., 4.55137988e+03, 2.45278833e+03, 8.74360718e+02,
          1.51687024e+03, 0., 0., 0., 0., 0., 0., 0., 0., 2.40467188e+03,
          1.67050269e+03, 1.70664270e+03, 3.80827124e+03, 1.86168628e+03,
          0., 0., 1.98063306e+03, 3.69328955e+03, 1.56878625e+03,
          2.97402905e+03, 8.92777734e+03, 0., 0., 0., 0., 1.04831140e+03,
          6.71831104e+03, 6.46223877e+03, 2.80649023e+03, 0., 0., 0., 0.,
          0., 5.63449658e+03, 2.20142773e+03, 1.64462622e+03,
          3.93826440e+03, 2.49784204e+03, 1.47526318e+03, 3.56598755e+03,
          0., 0., 4.24264050e+00, 1.85110803e+03, 3.53280786e+03,
          2.39080225e+03, 8.13241992e+03, 2.53079858e+03, 0., 0.,
          1.41421354e+00, 0. ]
      - [ 4.89146338e+03, 4.03950122e+03, 1.44277661e+03, 9.28040588e+02,
          0., 0., 0., 0., 0., 4.39829498e+02, 0., 0., 0., 0.,
          1.94270325e+02, 3.76107764e+03, 2.27430566e+03, 1.10923393e+02,
          0., 0., 3.05368622e+02, 1.16516090e+02, 3.30151489e+02,
          1.13712512e+03, 6.88600037e+02, 2.34546371e+02, 0.,
          1.41795624e+02, 1.74993689e+03, 1.64775903e+03, 1.04091895e+03,
          7.90650391e+03, 0., 0., 0., 6.89492569e+01, 9.12134277e+02,
          1.48146997e+03, 1.95227905e+03, 1.04648057e+04, 4.66921173e+02,
          0., 0., 0., 2.65699066e+02, 6.67216797e+02, 0., 0.,
          1.40481274e+03, 3.58022339e+02, 3.12166626e+02, 3.56252716e+02,
          0., 0., 2.23738129e+02, 5.32850488e+03, 5.16102734e+03,
          1.45039941e+03, 1.36056860e+03, 2.44711670e+03, 90., 0.,
          4.19447266e+02, 4.29516022e+02 ]
      - [ 3.37036328e+03, 1.02420977e+04, 3.63328931e+03, 1.83976746e+03,
          0., 0., 0., 0., 9.18557617e+02, 4.83553857e+03, 1.60488892e+03,
          2.63104523e+02, 0., 0., 1.41421354e+00, 0., 0., 0., 0.,
          2.78106836e+03, 1.01039130e+03, 1.27995190e+03, 3.53389313e+02,
          1.41446362e+03, 3.92115332e+03, 1.10435501e+02, 0.,
          2.02915601e+03, 2.06357813e+03, 4.21786768e+03, 5.37049268e+03,
          5.52945410e+03, 0., 0., 0., 0., 2.44018970e+03, 6.18393066e+03,
          3.21007788e+03, 7.08533887e+03, 36., 0., 0., 0.,
          1.86540161e+03, 1.19657666e+03, 3.31965527e+03, 1.95948242e+03,
          2.42635986e+03, 2.50043750e+03, 2.12608081e+03, 1.92803662e+03,
          0., 0., 0., 2.90714209e+03, 4.18954834e+03, 3.05652148e+03,
          2.78628735e+03, 6.51878076e+03, 2., 0., 0., 0. ]
      - [ 6.74960791e+03, 3.09443140e+03, 1.50617871e+03, 1.59674866e+03,
          1.58765076e+03, 0., 0., 0., 4.40458447e+03, 1.69412256e+03,
          7.81464844e+02, 1.09657483e+03, 784., 0., 0., 2.56632019e+02,
          2.63292920e+03, 5.65685415e+00, 0., 0., 3.56855298e+03,
          1.15329297e+03, 7.19040100e+02, 1.87025769e+03, 2.91283716e+03,
          0., 0., 4.88004059e+02, 3.51328467e+03, 2.24587891e+03,
          3.90550903e+03, 2.63690283e+03, 0., 0., 0., 7.33852600e+02,
          3.32879150e+03, 2.52067529e+03, 3.81038354e+03, 3.23122168e+03,
          0., 1.41421354e+00, 4.96145142e+02, 2.37252661e+03, 0.,
          2.23483911e+03, 3.00009351e+03, 1.56004663e+03, 2.41657739e+03,
          2.89851709e+03, 1.99526172e+03, 3.74300391e+03, 2., 0., 0.,
          3.83392822e+02, 3.47861719e+03, 4.48359863e+03, 2.80572754e+03,
          4.40467236e+03, 4.65026978e+02, 0., 1.13137083e+01, 0. ]
      - [ 5.65112158e+03, 1.76630005e+03, 2.35843604e+03, 4.53929590e+03,
          2.14448120e+02, 0., 0., 3.03655786e+03, 1.55878076e+03,
          6.67209778e+02, 1.66877954e+03, 3.03414380e+03, 0., 0.,
          1.65361557e+02, 1.49108362e+03, 8.70057449e+01, 0., 0., 0.,
          1.75023376e+03, 1.04891382e+03, 3.53068140e+03, 5.43600537e+03,
          0., 0., 0., 0., 3.34123022e+03, 3.64095630e+03, 2.90143311e+03,
          8.01929932e+03, 0., 0., 0., 2.38533020e+02, 4.41787891e+03,
          3.12227246e+03, 4.73439063e+03, 3.76449316e+03, 0., 0., 0.,
          4.44072075e+01, 2.34647144e+03, 2.15022290e+03, 2.91558667e+03,
          2.94447974e+03, 2.22003247e+03, 3.92892163e+03, 2.36990430e+03,
          2.00337659e+03, 0., 0., 5.65685415e+00, 1.54442358e+03,
          2.75254590e+03, 5.46820459e+03, 4.67337354e+03, 3.40402637e+03,
          0., 0., 4.24264050e+00, 1.64961023e+03 ]
      - [ 5.28478333e+02, 7.20924707e+03, 5.59131104e+03, 1.88724072e+03,
          1.08178601e+03, 7.80371704e+02, 1.97989902e+01, 0., 0.,
          4.40986475e+03, 2.27022559e+03, 0., 0., 0., 0., 0.,
          1.98822388e+03, 1.41421354e+00, 0., 2.18309399e+03,
          9.94361084e+02, 1.23005920e+03, 1.56775952e+03, 0.,
          2.04051587e+03, 2.28958301e+03, 9.63327637e+01, 0.,
          3.76520020e+03, 6.20292041e+03, 4.13361768e+03, 1.56554163e+03,
          1.81924316e+03, 9.97400391e+02, 1.63700916e+03, 1.42535474e+03,
          1.28715955e+03, 1.77383923e+03, 2.98453809e+03, 7.33081592e+03,
          12., 0., 1.54021497e+03, 5.94810867e+01, 1.05990562e+02,
          7.58221619e+02, 2.78004980e+03, 9.04682251e+02, 3.64601636e+03,
          2.07463916e+03, 1.56543994e+03, 1.42901294e+03, 0., 0.,
          2.88444099e+01, 3.53067163e+03, 1.94711206e+03, 6.12435547e+03,
          1.57476990e+03, 2.84270361e+03, 2.86621729e+03, 0., 0.,
          3.80189423e+02 ]
      - [ 7.54769189e+03, 1.51806104e+03, 5.76559082e+03, 1.20901001e+03,
          0., 0., 0., 4.62289948e+02, 1.67307727e+03, 8.86994934e+02,
          2.77203711e+03, 0., 0., 0., 1.87408646e+02, 8.24621105e+00, 0.,
          0., 0., 0., 1.53394913e+02, 8.38003601e+02, 1.19305713e+03,
          3.88455762e+03, 3.80060034e+03, 0., 0., 0., 1.66692993e+03,
          2.64802710e+03, 3.74904102e+03, 8.75644238e+03, 2.23606796e+01,
          0., 0., 0., 3.96817212e+03, 3.91715063e+03, 4.84363232e+03,
          5.74769824e+03, 0., 2.14009342e+01, 0., 4.92546478e+02,
          1.38264124e+03, 5.79599182e+02, 5.02333936e+03, 0.,
          2.40653564e+03, 1.16254431e+03, 1.93768433e+03, 1.62562268e+03,
          0., 0., 1.49488403e+02, 1.68213684e+03, 4.59434766e+03,
          6.30477051e+03, 2.71507520e+03, 3.38732886e+03, 0., 0.,
          3.49384399e+02, 4.50810010e+03 ]
      - [ 1.69237585e+03, 7.36772363e+03, 4.28781299e+03, 1.49259973e+03,
          0., 0., 0., 0., 1.45049341e+03, 7.21737402e+03, 6.84075806e+02,
          0., 0., 0., 3.57770882e+01, 0., 2.36859692e+03, 0., 0., 0.,
          2.80659033e+03, 2.14475391e+03, 1.54546240e+03, 1.41047656e+03,
          3.09659302e+03, 0., 0., 0., 5.51497705e+03, 1.40896814e+03,
          3.15338086e+03, 3.58951587e+03, 4.91150970e+02, 5.60853027e+02,
          0., 2.05399097e+03, 1.04899219e+03, 2.02437219e+03,
          2.09889307e+03, 4.78239551e+03, 7.03092041e+02, 0.,
          3.39063416e+02, 1.39137817e+03, 1.47032947e+03, 7.90859299e+01,
          1.11918494e+03, 3.26534741e+03, 2.29552637e+03, 1.99904211e+03,
          4.12356641e+03, 3.44436572e+03, 32., 0., 0., 8.33173462e+02,
          3.27559326e+03, 2.77365552e+03, 6.34080566e+03, 2.33762109e+03,
          1.52550513e+03, 0., 2.82842708e+00, 0. ]
      - [ 6.38182178e+03, 2.64116797e+03, 3.22239868e+03, 2.85150732e+03,
          0., 1.14236603e+02, 0., 2.63711975e+02, 4.88089893e+03,
          1.71140674e+03, 1.19945557e+03, 1.38707300e+03, 0., 0., 0., 0.,
          5.09901953e+00, 2.82842708e+00, 0., 0., 6.74074158e+02,
          2.15319434e+03, 2.38797021e+03, 5.08657910e+03, 9.71287842e+01,
          1.41421354e+00, 0., 0., 3.36232300e+03, 3.89745020e+03,
          2.68031494e+03, 7.17670215e+03, 0., 0., 0., 2.29738623e+03,
          2.51244556e+03, 2.67611768e+03, 4.53072900e+03, 5.12049561e+03,
          0., 0., 0., 8.00242065e+02, 2.33365063e+03, 2.93649951e+03,
          1.79490308e+03, 3.53415796e+03, 3.20649829e+03, 4.70610547e+03,
          9.00099182e+02, 2.35209375e+03, 1.67013599e+03, 0.,
          6.92964630e+01, 1.55571558e+03, 3.38693652e+03, 4.78935645e+03,
          3.34660132e+03, 4.56105273e+03, 1.13967529e+03, 0., 0., 0. ]
      - [ 1.82328967e+03, 6.99231641e+03, 6.15048193e+03, 9.49210205e+01,
          0., 0., 0., 0., 1.66695239e+03, 5.44141541e+02, 9.39229431e+02,
          5.87799255e+02, 1.89452173e+03, 7.40270233e+01, 0.,
          8.40951843e+01, 2.06372656e+03, 0., 0., 0., 1.25833789e+03,
          1.26488477e+03, 1.58656311e+03, 3.26000879e+03, 3.35767188e+03,
          3.34104767e+02, 0., 0., 3.01366748e+03, 3.41279492e+03,
          2.71638257e+03, 6.03509668e+03, 0., 8.48646011e+01, 0.,
          2.02164087e+03, 2.00360229e+03, 2.06115039e+03, 5.87192285e+03,
          2.08368164e+03, 3.90710693e+03, 4.56508484e+01, 8.28009644e+01,
          0., 1.57695908e+02, 1.63372131e+03, 2.70614990e+03, 0.,
          1.77002823e+02, 1.32094873e+03, 1.20565137e+03, 2.94410986e+03,
          0., 0., 2.48007355e+02, 4.56283057e+03, 3.88305151e+03,
          3.01871069e+03, 2.16267578e+03, 3.07973242e+03, 1.68087781e+03,
          3.03772522e+02, 1.76713965e+03, 5.02419043e+03 ]
      - [ 5.22498291e+03, 3.32199316e+03, 2.26640063e+03, 2509., 0., 0.,
          0., 2.85983984e+03, 1.27723291e+03, 2.75497876e+03, 0.,
          9.11215637e+02, 5.51400024e+02, 0., 0., 1.50131775e+03,
          2.88585571e+03, 1.67942749e+03, 0., 1.89701819e+03,
          4.84462585e+02, 1.85042908e+03, 1.40753052e+03, 2.17386963e+03,
          2.01161243e+03, 1.62098267e+03, 1.59806137e+02, 1.80059302e+03,
          2.42046924e+03, 2.77445044e+03, 3.48442773e+03, 2.89429736e+03,
          0., 0., 0., 0., 1.82544788e+03, 2.90406885e+03, 9.35876270e+03,
          2.35240381e+03, 0., 9.06972961e+01, 0., 0., 4.59977692e+02,
          2.20658911e+03, 5.59531982e+03, 1.41742236e+03, 1.71575940e+03,
          1.56969702e+03, 1.06060828e+03, 4.15779346e+03, 1.02019608e+02,
          0., 0., 3.26088599e+03, 3.79493896e+03, 2.13825928e+03,
          4.73845996e+03, 4.75641260e+03, 0., 0., 1.59505493e+02,
          3.43353296e+03 ]
      - [ 4.96579041e+02, 1.37892861e+04, 1.30572827e+03, 7.60486023e+02,
          0., 0., 0., 0., 0., 2.31756152e+03, 3.49905701e+02, 0., 0., 0.,
          0., 0., 5.24316650e+03, 60., 0., 0., 2.32751270e+03,
          8.94467468e+02, 7.00405579e+02, 1.13991234e+02, 3.73933228e+03,
          3.53771094e+03, 0., 0., 3.44736743e+03, 4.17202002e+03,
          3.03992798e+03, 2.17534033e+03, 0., 0., 0., 0., 2.00811829e+03,
          6.95897900e+03, 7.13678418e+03, 2.60785376e+03, 0.,
          5.81628784e+02, 8.91755981e+02, 9.55082947e+02, 5.73795313e+03,
          9.08133240e+02, 4.26251129e+02, 0., 1.28360693e+03,
          1.61305762e+03, 3.30960229e+03, 5.25438281e+03, 3.00000019e+01,
          0., 0., 2.68791162e+03, 1.41683508e+03, 4.47442432e+03,
          4.05635498e+03, 5.68389404e+03, 8.27908569e+02, 8.91964188e+01,
          5.40706970e+02, 8.75681396e+02 ]
      - [ 5.16581982e+03, 1.67186572e+03, 1.97986353e+03, 1.24483618e+03,
          1.99266235e+03, 0., 0., 0., 2.71250488e+03, 8.34504150e+02,
          4.37373993e+02, 0., 0., 0., 2.82842708e+00, 4.18857813e+03,
          6.11581885e+03, 3.49284973e+01, 0., 0., 0., 7.76582275e+02,
          1.05294214e+03, 5.30311816e+03, 1.63244263e+03, 0., 0., 0.,
          1.76356274e+03, 2.85455078e+03, 3.89162451e+03, 2.62843457e+03,
          4.19268402e+02, 0., 0., 0., 5.52666553e+03, 2.77676294e+03,
          2.24661523e+03, 4.54335840e+03, 3.80614258e+02, 2.17439282e+03,
          8.43408569e+02, 1.97482153e+03, 0., 1.76425586e+03,
          7.54035767e+02, 2.27615356e+03, 1.46015503e+03, 5.73888525e+03,
          1.74870374e+03, 1.66934338e+03, 0., 9.52575455e+01,
          1.15247559e+02, 7.30248169e+02, 5.76848926e+03, 5.51443652e+03,
          2.93961035e+03, 3.51817603e+03, 0., 0., 0., 0. ]
      - [ 2.89760596e+03, 9.34441211e+03, 1.52536731e+03, 1.38073035e+03,
          3.24818555e+03, 2.51602844e+02, 4.24264050e+00, 0.,
          4.94879791e+02, 7.07920557e+03, 9.25779602e+02, 2.74590607e+01,
          1.66066785e+03, 0., 0., 0., 3.68022534e+03, 0., 0., 0.,
          4.10217041e+03, 2.68989795e+03, 1.60374084e+03, 0.,
          3.53361987e+03, 2.49978271e+02, 0., 1.50153244e+02,
          6.90183105e+03, 3.36591309e+03, 3.76176953e+03, 1.73308057e+03,
          0., 0., 0., 5.02179199e+02, 3.09177124e+03, 6.52906445e+03,
          6.70002539e+03, 2.66505591e+03, 8.74642792e+01, 0., 0., 0., 0.,
          7.12291357e+03, 1.70580579e+03, 1.89792920e+03, 1.68055701e+03,
          7.39866699e+02, 1.26530823e+03, 5.02338135e+03, 8., 0., 0.,
          2.01486914e+03, 2.66132813e+03, 4.87971631e+03, 3.31599438e+03,
          7.04337842e+03, 10., 2.38801178e+02, 2.82842708e+00,
          3.66974731e+03 ]
      - [ 3.16330127e+03, 2.12491333e+03, 1.54364575e+03, 3.58718433e+03,
          1.81520691e+03, 0., 0., 0., 2.52352832e+03, 1.66527466e+03,
          1.21061023e+03, 1.22055920e+03, 1.84750513e+03, 0.,
          5.58883545e+02, 3.43284326e+03, 2.35015991e+03, 9.59012512e+02,
          4.77428528e+02, 2.23036108e+03, 2.91628369e+03, 2.27654858e+03,
          8.67286621e+02, 7.55584106e+02, 5.81520203e+02, 5.85853210e+02,
          3.89307068e+02, 0., 7.32340674e+03, 1.98856396e+03,
          2.24215942e+03, 9.82549316e+02, 1.77494360e+03, 0., 0., 0.,
          4.02959082e+03, 3.75414893e+03, 6.89263477e+03, 1.81139111e+03,
          1.73171094e+03, 1.41421354e+00, 0., 0., 1.75692847e+03,
          3.04398218e+03, 1.49746484e+03, 1.78626123e+03, 2.41788477e+03,
          1.60695789e+03, 2.64728540e+03, 1.49186353e+03, 0., 0., 0.,
          6.80294037e+01, 7.25450049e+03, 3.30576855e+03, 2.73262646e+03,
          5.48971631e+03, 0., 0., 0., 2.63383862e+03 ]
      - [ 7.53281494e+03, 2.94753955e+03, 2.87747339e+03, 4.59931299e+03,
          1.71002930e+02, 0., 0., 1.26372467e+02, 1.31216113e+03,
          9.35972534e+02, 9.80730347e+02, 2.20294653e+03, 0., 0., 0., 0.,
          5.76902344e+03, 6.22435265e+01, 0., 0., 1.77525049e+03,
          1.50467419e+03, 2.39071069e+03, 2.06084204e+03, 3.45223779e+03,
          7.21613831e+02, 0., 0., 3.94645532e+03, 6.16730859e+03,
          2.20575391e+03, 1.97923792e+03, 2.44131119e+02, 0., 0., 0.,
          7.26000146e+03, 2.18504199e+03, 5.64398291e+03, 2.73816724e+03,
          6.69404724e+02, 1.03237595e+02, 3.75363208e+03, 2.54678857e+03,
          6.17002441e+02, 9.11531677e+02, 1.20806458e+03, 2.23239624e+03,
          2.55609448e+03, 4.58055469e+03, 2.99117627e+03, 2.54398535e+03,
          0., 2.40831890e+01, 0., 7.47870850e+02, 4.14965723e+03,
          7.68371777e+03, 2.71054541e+03, 2.76250317e+03, 2.24641797e+03,
          0., 0., 0. ]
      - [ 4.94986621e+03, 4.07131616e+03, 4.41386182e+03, 0., 0., 0., 0.,
          0., 4.37064941e+03, 7.84967041e+02, 0., 0., 0., 0., 0.,
